UUUU 0.423774 0.467335 1.202009 -0.227952 0.264597 -0.474685 -0.367139 0.022996 0.776305 0.147498 2.309967 -0.359599 -1.570236 -0.185811 0.686514 -0.097000 -0.271758 -0.134073 -0.369957 -0.233409 0.267804 -0.666858 0.377146 -1.332780 0.181966 -0.061333 1.328314 0.555358 0.447653 -0.437937
AAAA -0.269768 -0.360997 -0.501343 0.385864 -0.359565 -0.331152 -0.066250 -0.195583 -0.649067 -0.190906 1.675067 -0.350738 -0.243340 -0.037391 0.754603 0.498527 -1.025933 -0.228932 -0.345241 0.144281 0.089387 -1.088937 -0.749136 -1.347789 -0.647889 1.054216 1.566889 0.232825 -0.132100 -1.432715
AUUU 0.595149 0.075508 0.823141 -0.176473 -0.145015 -0.637747 0.085468 0.142827 0.401739 -0.195661 1.684313 -0.521188 -1.400216 -0.222866 0.656337 0.024768 -0.075052 -0.244123 0.116371 -0.382903 0.164351 -0.626545 0.259710 -1.673928 -0.085989 -0.217077 1.386004 0.366561 0.179594 -0.902907
AAAU 0.120411 -0.358192 -0.121354 0.230885 -0.291290 -0.347010 0.289278 0.296279 -0.501993 -0.334184 1.498358 -0.546044 -0.384505 -0.090718 0.688129 0.295187 -0.487838 -0.431329 0.203543 -0.259260 -0.026747 -0.964658 -0.211379 -1.498172 -0.282295 0.485629 1.528918 -0.002785 -0.097854 -1.352984
UUUA 0.720949 -0.141136 0.793815 -0.372422 0.226642 -0.392109 -0.506355 -0.153787 0.379189 -0.023961 1.779457 -0.322565 -1.274549 -0.164355 0.868795 -0.101679 -0.553870 -0.242252 0.145026 -0.303286 0.112765 -0.733814 0.027402 -1.412004 -0.129998 -0.099444 1.215749 0.513431 0.431484 -0.842940
UAAA 0.305501 -0.679679 -0.215868 0.041662 0.048937 -0.005184 -0.272285 -0.212470 -0.485610 -0.168800 1.561525 -0.394355 -0.365422 -0.020463 0.908806 0.289452 -0.961597 -0.349702 0.074326 -0.058652 -0.013861 -1.188535 -0.414732 -1.353516 -0.313193 0.712001 1.407782 0.273497 0.241952 -1.417388
UUCU 0.468968 0.376988 0.611406 0.096165 0.664596 -0.031243 -0.095048 -0.379201 0.711826 0.405580 1.758658 -0.400810 -0.827133 -0.221122 -0.086486 0.122018 0.014832 -0.711078 -0.503437 -0.321763 0.636432 -0.771725 0.597007 -0.921897 0.818254 -0.020499 1.068733 0.070782 0.125258 -0.735957
AGAA -0.298260 -0.485483 -0.390078 0.231737 -0.420302 -0.865104 -0.326919 -0.344613 -0.075147 -0.051557 0.751879 -0.387814 -0.166345 -0.032460 0.451219 0.863157 -1.153739 -0.304483 -0.722903 0.077242 0.679729 -0.445725 -0.942401 -1.066099 -0.271522 0.257452 1.272447 0.303753 -0.353348 -1.565946
UUUC 0.280489 0.560576 0.642946 0.049877 0.143253 -0.175842 -0.156526 -0.262125 0.966263 0.365177 2.106719 -0.222487 -1.254179 -0.231167 -0.139420 0.229102 0.097087 -0.141715 -0.290483 -0.142897 0.312575 -0.562847 0.593373 -1.002887 0.586179 -0.085317 1.354601 0.432326 0.304715 -0.438860
GAAA -0.289592 -0.191053 -0.322126 0.399970 -0.338272 -0.677761 0.073654 -0.029071 -0.340425 -0.258158 1.005633 -0.502940 0.029907 0.191088 0.774681 0.677820 -1.067843 -0.128193 -0.735439 0.384401 0.746930 -0.785503 -0.907771 -1.032618 -0.432773 0.744631 1.302060 0.005763 -0.515330 -1.320035
AAUU 0.227882 -0.057065 0.347113 0.099974 -0.138541 -0.467837 0.013103 0.093815 -0.036436 -0.195558 1.862021 -0.413595 -0.923967 -0.094702 0.698345 0.299339 -0.460036 -0.175318 -0.099826 -0.066961 0.116637 -1.004256 0.048671 -1.549502 -0.405678 0.321719 1.586218 0.283496 0.149906 -1.097663
UAUU 0.986889 -0.341728 0.833133 -0.371922 0.223252 -0.267716 -0.172758 0.090301 0.336326 -0.114469 1.641389 -0.444810 -1.249965 -0.198327 0.858974 -0.150312 -0.281582 -0.436854 0.349828 -0.538527 0.018697 -0.825109 0.258763 -1.524031 0.133270 -0.262849 1.358919 0.339958 0.468440 -0.950685
AAUA 0.428282 -0.734555 -0.190887 -0.042031 -0.118009 -0.212707 -0.054978 -0.164192 -0.371270 -0.385925 1.087183 -0.394902 -0.393667 -0.031642 0.786095 0.223174 -0.638434 -0.389886 0.498409 -0.312097 -0.005952 -0.923525 -0.451392 -1.563389 -0.385382 0.326094 1.338211 0.092738 0.121619 -1.533107
UUAA 0.275364 -0.295420 0.326989 -0.013458 0.102492 -0.214850 -0.375213 -0.180775 -0.037980 -0.035262 1.896810 -0.281915 -0.811982 -0.132387 0.923726 0.179064 -0.780131 -0.157768 -0.175439 -0.131111 0.037934 -1.038924 -0.191151 -1.384191 -0.348774 0.447139 1.417406 0.431924 0.291936 -1.026791
CUUU 0.400027 0.727084 0.661808 -0.070340 0.658082 -0.189713 -0.196043 -0.357516 0.465494 0.577528 2.167308 -0.310398 -0.910643 -0.346266 0.174052 -0.071007 -0.435192 -0.618312 -0.315439 -0.148114 0.617613 -0.560011 0.724589 -0.922768 0.472438 -0.090126 0.885715 0.297161 -0.011405 -0.668043
AAAG -0.387392 -0.645667 -0.226116 0.515367 -0.523937 -0.582801 -0.129888 -0.439524 -0.293537 0.261290 1.202996 -0.416911 0.004208 0.111595 0.575331 1.069633 -1.071123 -0.222605 -0.790972 0.193240 0.187521 -0.580840 -0.874139 -1.059558 -0.441659 0.469076 0.973856 0.508458 0.005362 -1.456414
UUAU 0.763217 -0.243532 0.845318 -0.303063 0.217539 -0.386155 -0.080515 0.256427 0.369359 -0.202250 1.666268 -0.544384 -1.301976 -0.142020 0.829511 -0.088578 -0.152737 -0.497772 0.462123 -0.576039 0.023367 -0.858254 0.316843 -1.546889 0.138524 -0.317295 1.435888 0.193387 0.387535 -0.961100
AUAA 0.304247 -0.646358 -0.235287 0.098857 -0.314727 -0.396574 0.182110 -0.042254 -0.426559 -0.488901 1.062800 -0.510319 -0.460832 -0.138766 0.826466 0.355206 -0.635554 -0.400366 0.402561 -0.256284 -0.029063 -1.038396 -0.390908 -1.685980 -0.438731 0.358024 1.413679 0.073354 0.058328 -1.616967
UUUG 0.094267 0.297195 1.247850 -0.213217 0.429667 -0.704700 0.097458 0.654496 0.271770 0.153422 2.121491 -0.909987 -1.044783 -0.188189 0.918951 0.028531 -0.340711 -0.337651 -0.562643 -0.222095 0.497621 -0.181426 0.103128 -0.818073 0.232794 -0.043733 0.670003 0.309492 0.103729 -0.209125
UCUU 0.418996 0.516659 0.642158 0.126134 0.453906 -0.037215 -0.032415 -0.318761 0.775943 0.461457 1.856894 -0.310458 -0.891511 -0.231787 -0.334045 0.132923 0.182073 -0.679410 -0.416361 -0.325004 0.488257 -0.832848 0.539706 -1.067641 1.005219 0.010355 1.297686 0.078672 0.151282 -0.646846
AAGA -0.409914 -0.166959 -0.410648 0.275815 -0.404893 -0.979606 -0.207643 -0.265608 0.061647 -0.143735 0.629392 -0.533799 -0.174610 0.164559 0.515551 0.842682 -0.981319 -0.176846 -0.596754 0.168842 0.789816 -0.496671 -0.983271 -1.202570 -0.285309 0.187849 1.172283 0.232926 -0.501585 -1.432090
CAAA -0.459594 -0.120260 -0.682342 0.252559 -0.428721 -0.423837 0.435480 -0.582132 -0.772431 0.041034 1.874901 -0.341807 -0.421418 -0.298388 -0.168962 0.682049 -0.563979 -0.245310 -0.143259 -0.015689 -0.205909 -0.293383 -0.452032 -1.267163 -0.819312 0.810361 1.088232 0.403341 -0.138704 -1.143827
AUAU 0.817193 -0.671145 0.232098 -0.143548 -0.215136 -0.469938 0.446974 0.389886 -0.062572 -0.766685 0.820988 -0.655293 -0.948906 -0.141520 0.764390 0.097152 0.034832 -0.717515 1.014035 -0.773816 -0.147540 -0.801818 0.076361 -1.870356 -0.051170 -0.285736 1.475242 -0.090811 0.170787 -1.445985
UUCA 0.170122 0.135830 0.355877 -0.231066 -0.126089 -0.630535 0.424500 -0.510824 0.529673 0.162113 1.776464 -0.315718 -1.329400 -0.460727 -0.648934 0.554492 0.432514 -0.178854 -0.432753 -0.327636 0.039423 -0.388897 -0.190823 -1.224832 0.038715 0.056274 1.168822 0.366070 0.240004 -0.634482
UGAA -0.549604 -0.013496 -0.292006 0.124247 0.378598 -0.952015 0.139955 0.619281 -0.285421 -0.451422 1.483025 -1.013579 -0.052158 -0.013956 0.664076 0.398876 -0.748896 -0.361759 -0.349979 -0.181744 0.782584 -0.717991 -0.534378 -0.822779 -0.059948 0.378553 1.217761 -0.218331 -0.591798 -1.010010
CAUU 0.411469 0.178217 0.438046 -0.498138 -0.269599 -0.733611 0.595802 -0.082141 0.056138 0.044472 1.768795 -0.420275 -1.445500 -0.513914 -0.202729 0.225683 0.236889 -0.123850 0.221525 -0.437345 -0.115421 -0.047238 0.369512 -1.313300 -0.099825 -0.299206 1.071966 0.436676 0.111998 -0.649182
AAUG -0.218066 -0.481411 -0.016347 0.285467 0.072725 -0.626674 0.757824 0.856392 -0.657079 -0.258075 1.356538 -1.135024 -0.013291 0.187328 0.866034 0.471912 -0.400139 -0.580195 0.054992 -0.321543 0.167967 -0.532940 -0.416965 -1.218744 -0.259217 0.378347 0.759817 -0.276454 -0.284502 -1.016794
UAAU 0.683933 -0.726302 0.169158 -0.048299 0.108019 -0.064447 -0.041835 0.174502 -0.179128 -0.292740 1.321568 -0.549817 -0.596413 -0.069714 0.839112 0.086924 -0.463452 -0.619814 0.528309 -0.471805 -0.083553 -1.125868 0.052153 -1.529292 0.001783 0.051326 1.492684 0.078335 0.290807 -1.352836
AUUA 0.899786 -0.464026 0.436679 -0.360671 -0.056335 -0.426871 -0.104496 -0.240898 0.095258 -0.215719 1.146253 -0.351053 -1.104631 -0.155464 0.810707 0.137752 -0.446721 -0.321940 0.479026 -0.419903 0.009062 -0.751640 -0.067945 -1.701856 -0.340078 -0.160458 1.277913 0.304966 0.292387 -1.253243
UGUU 0.015595 -0.213354 0.750297 -0.320858 0.872270 -0.440924 0.006833 0.719142 0.494727 0.045821 2.319436 -1.211115 -0.804364 -0.050763 0.697296 0.232450 -0.126564 -0.244137 -0.205445 -0.493329 0.157864 -0.429745 -0.047242 -0.720510 0.292828 -0.121672 0.903761 0.362296 0.444913 -0.025354
AACA -0.038771 -0.185041 -0.707758 -0.262282 -0.234178 -0.610074 0.466257 -0.573752 -0.776662 -0.073194 1.676955 -0.325482 -0.604135 -0.401362 -0.146589 0.464836 -0.621076 -0.086655 -0.138732 -0.061077 0.096668 -0.503613 -0.971535 -1.192952 -0.821096 0.681622 0.941843 0.239870 -0.301127 -1.002852
UCUG 0.048521 -0.047590 0.164369 0.328604 0.803222 -0.132697 0.650612 0.399186 0.204945 0.116581 1.275670 -0.844494 0.025593 -0.204073 -0.420387 0.365104 0.217131 -1.071517 -0.553842 -0.467169 0.724393 -0.444672 0.212197 -0.382398 1.019808 0.025731 0.559364 -0.423125 -0.262655 -0.644673
CAGA -0.310371 -0.043794 -0.419346 -0.205129 -0.306282 -1.160402 0.268002 -0.615785 0.283457 -0.114554 0.578983 -0.362246 -0.562156 -0.315392 -0.567162 1.044901 -0.433806 -0.293169 -0.426240 -0.252779 0.632716 0.476104 -0.688604 -0.837071 -0.264356 -0.548004 0.583164 0.312024 -0.425114 -1.094743
CUCU 0.499740 0.443720 -0.180196 0.337214 1.077641 0.391729 0.318256 -0.686576 0.225302 0.703792 1.315371 -0.221296 0.039985 -0.387355 -0.853990 0.156281 -0.062892 -1.255454 -0.473512 -0.357430 0.897046 -0.658163 0.756581 -0.420621 1.145055 -0.026854 0.531989 -0.342309 -0.373476 -0.911228
AGAG -0.212452 -0.688867 0.099070 0.177500 -0.423218 -1.129810 -0.267180 -0.628788 0.611719 0.226543 0.067577 -0.427926 -0.127302 -0.011164 0.224274 1.329854 -0.975224 -0.371775 -0.915735 -0.111012 0.907784 0.455492 -0.975035 -0.588383 0.088983 -0.696296 0.470023 0.524464 -0.199664 -1.386547
UCCU 0.118532 0.483655 -0.141181 0.471279 0.598940 0.664456 0.208404 -0.142930 0.638860 0.299522 1.329310 -0.333243 -0.167494 0.024847 -0.429936 0.488522 -0.025406 -1.073821 -0.085084 -0.326963 0.604201 -0.131059 0.915626 -0.840124 1.112039 -0.173405 0.978188 0.287876 -0.099178 -0.633878
AGGA 0.144065 -0.149772 0.094870 0.095101 -0.776682 -0.728424 0.231215 -0.374812 0.232934 -0.022116 0.029332 -0.127395 -0.402547 0.269736 0.314898 0.908461 -0.986415 -0.556265 -0.783823 0.166388 1.039823 0.314500 -1.139314 -0.977124 0.133384 -0.282466 0.570043 0.381130 -0.693280 -1.276531
UAUA 1.080714 -0.969125 0.192819 -0.471079 0.250490 0.002271 -0.303039 -0.250082 -0.110527 -0.362372 0.783586 -0.458483 -0.744164 -0.123655 0.982507 -0.105951 -0.611422 -0.777801 0.954088 -0.776095 -0.182438 -0.878835 -0.193232 -1.633821 -0.005148 -0.248494 1.187574 0.143278 0.415486 -1.484810
GUUU 0.139273 -0.185145 1.091121 -0.325913 0.358851 -0.233608 -0.359087 0.416269 0.816001 0.125095 2.178298 -0.560167 -1.166940 0.016118 0.673184 0.324211 -0.281342 0.015031 -0.650869 -0.208699 0.152143 -0.299102 -0.344186 -0.676782 0.467252 0.059362 0.965055 0.704777 0.613143 0.217806
AAAC -0.121093 0.159431 -0.922739 -0.175919 0.163417 -0.106775 0.030637 -0.581619 -0.820452 -0.189207 1.663383 -0.165503 -0.330674 -0.121433 0.149731 0.129430 -0.946853 -0.112384 -0.109531 0.264441 0.345192 -0.661730 -0.626300 -1.031192 -0.755485 1.090032 1.061121 0.227183 -0.377829 -0.920691
GGAA 0.020943 0.071330 0.352873 0.366404 -0.612945 -0.097077 0.472666 0.184626 -0.410588 -0.240547 0.718988 0.042558 -0.099748 0.196707 0.682236 0.632676 -0.922412 -0.495857 -0.846021 0.307732 0.768746 -0.279066 -1.169841 -0.586225 0.001830 0.407243 0.887668 0.226288 -0.704242 -1.155035
UUCC 0.028532 0.803233 -0.061534 0.451550 0.267631 0.400513 0.148944 -0.125139 1.120811 -0.017379 1.723233 0.020384 -0.937725 -0.094427 -0.247815 0.514488 -0.080751 -0.528981 -0.122628 -0.139355 0.465718 0.028838 0.994458 -1.073007 0.336864 -0.203244 0.929744 0.691507 0.206281 -0.287039
UCAU 0.504404 -0.191028 0.178127 -0.033769 -0.271487 -0.365629 0.836473 0.178805 0.324300 -0.050884 1.232465 -0.524762 -0.923052 -0.393241 -0.717444 0.390488 0.864405 -0.625252 0.221104 -0.658944 -0.128105 -0.548787 0.197426 -1.412775 0.523868 -0.160384 1.465832 -0.147226 0.156464 -0.880026
AUGU 0.071103 -1.020263 0.070755 -0.198725 0.441729 -0.403828 0.587008 0.988495 0.000777 -0.406825 1.372648 -1.400949 -0.213600 0.097238 0.651465 0.457286 0.083303 -0.474186 0.511840 -0.718723 -0.196601 -0.444632 -0.415838 -1.199969 0.066054 -0.093102 0.912868 -0.068658 0.332755 -0.532934
AUGA -0.120914 -0.071859 -0.187512 -0.097476 -0.063076 -1.278139 0.452368 0.685807 -0.058174 -0.633717 0.378972 -1.085085 -0.374226 0.085179 0.628777 0.465722 -0.343218 -0.420599 0.253143 -0.327084 0.719145 -0.444547 -0.469459 -1.446707 -0.205672 -0.283742 1.130661 -0.395418 -0.691158 -1.206354
ACAU 0.689732 -0.087022 -0.147917 -0.888737 -0.070593 -0.808321 0.708246 -0.135028 -0.687921 -0.326480 1.204017 -0.582489 -1.189844 -0.334519 -0.259792 -0.027081 -0.020355 -0.322268 0.658399 -0.538134 0.006252 -0.136796 -0.434690 -1.498579 -0.431410 -0.266182 0.889348 0.039028 -0.232329 -0.691014
UGUG -0.372227 -0.596235 0.297751 -0.224571 1.044313 -0.520233 0.756768 1.359978 -0.178791 -0.241443 1.554533 -1.610162 0.196635 0.032497 0.605045 0.395481 -0.082478 -0.720506 -0.248949 -0.730950 0.285788 0.154463 -0.414469 -0.107144 0.414640 -0.156445 0.031372 -0.251317 0.041393 -0.001151
UUGU 0.168821 -0.319544 0.733529 -0.481593 0.805136 -0.343445 -0.104785 0.718599 0.538220 0.195483 2.264934 -1.036304 -0.715002 -0.039337 0.599271 0.281510 -0.079587 -0.147131 -0.227530 -0.425773 0.107406 -0.386542 -0.151952 -0.673780 0.446509 -0.097453 0.891879 0.345787 0.525693 0.004604
CACA 0.065957 -0.006510 -0.539178 -0.688253 -0.210718 -0.807988 0.887153 -0.848795 -0.667158 -0.020316 1.337516 -0.289395 -1.026675 -0.691736 -1.204832 0.568560 0.109226 -0.203988 0.208498 -0.573977 -0.262006 0.600988 -0.726011 -0.981992 -0.695809 -0.272925 0.179791 0.251519 -0.107198 -0.579481
ACAA 0.069411 -0.026532 -0.756947 -0.519105 -0.080191 -0.607582 0.335172 -0.750475 -1.009823 -0.078588 1.608062 -0.398333 -0.588247 -0.213146 -0.227666 0.399934 -0.738144 0.042652 0.063760 0.007313 0.076055 -0.433677 -1.112610 -1.421257 -0.919370 0.621420 0.804558 0.230983 -0.334942 -0.910064
CUGU 0.136388 -0.367021 -0.144074 -0.194713 1.323903 0.082962 0.288467 0.399678 0.102099 0.295261 1.738424 -1.009426 0.227536 -0.111147 -0.137981 0.410630 -0.239542 -0.778263 -0.073026 -0.620990 0.433217 -0.240929 0.004038 -0.129831 0.729783 -0.162876 0.281340 -0.151695 0.109512 -0.228957
AAGU -0.340252 -1.088364 -0.276411 -0.050929 0.232026 -0.275596 -0.355755 -0.144491 0.307430 0.310381 1.650026 -0.825852 0.302451 0.206085 0.437835 1.125565 -0.606399 0.111698 -0.320425 -0.200630 -0.003143 -0.681398 -0.939621 -0.670360 -0.037197 0.129113 1.166721 0.606353 0.520012 -0.794786
ACUU 0.878681 0.559013 0.224359 -0.786067 0.919490 -0.478242 -0.169451 -0.638166 -0.094467 0.509528 1.949233 -0.375046 -0.997833 -0.153789 -0.048243 -0.258876 -0.756076 -0.197225 -0.139159 -0.004897 0.793616 -0.750115 -0.187632 -1.000214 0.065756 0.076368 0.567597 0.084436 -0.321611 -0.455332
UCAG 0.109541 -0.474870 0.109531 0.103056 -0.194817 -0.646380 0.489130 -0.626254 0.653706 0.392213 0.884198 -0.345875 -0.568366 -0.434938 -1.109996 1.190517 0.404460 -0.424359 -0.890097 -0.445620 0.315337 -0.028981 -0.519047 -0.609547 0.474784 -0.341326 0.709722 0.186115 0.170025 -0.891165
GAGA -0.218971 0.003832 -0.033550 0.025765 -0.285159 -1.332899 -0.086093 0.025784 0.618624 -0.259632 -0.227332 -0.592020 -0.104441 0.203201 0.484834 0.860523 -0.858733 -0.260169 -0.853405 0.148430 1.420361 0.095264 -1.015789 -0.712253 -0.046435 -0.532961 0.718548 0.006417 -0.871680 -1.081219
UCUC 0.323271 0.276946 -0.274540 0.465278 0.398548 0.340948 0.433716 -0.420712 0.650944 0.499389 1.259772 -0.097576 -0.110428 -0.272450 -1.422667 0.585004 0.683026 -0.839316 -0.360706 -0.376277 0.450566 -0.715446 0.585997 -0.729763 1.253253 0.028029 1.194022 -0.222249 -0.084061 -0.701860
ACAG 0.151436 -0.393112 -0.284676 -0.736238 -0.005445 -1.005173 0.350006 -0.864735 -0.204351 0.184567 0.904081 -0.431396 -0.533952 -0.391172 -0.594104 0.785197 -0.568638 -0.087849 -0.375197 -0.320456 0.309643 0.426071 -1.270583 -0.779811 -0.577332 -0.478833 0.111283 0.420504 -0.272547 -0.774067
CUGA -0.219757 0.450880 -0.404395 0.085701 0.945316 -0.824210 0.281312 0.088621 0.029140 -0.099635 0.860716 -0.908275 0.103031 -0.138419 -0.082415 0.460712 -0.565104 -0.844521 -0.308544 -0.287646 1.295749 -0.212417 -0.022610 -0.421527 0.420969 -0.375080 0.496995 -0.399116 -0.932741 -1.035309
CCUG -0.310983 0.407388 -0.427100 0.383186 0.813069 0.268408 0.730638 0.551924 -0.052486 0.139004 1.273565 -0.632979 0.354987 0.094613 -0.039358 0.564145 -0.683012 -1.147648 -0.012060 -0.233094 0.868827 0.777082 0.623642 -0.236780 0.540814 -0.393769 -0.029798 0.299883 -0.427281 -0.357020
CUUC 0.304578 0.827361 -0.024247 0.255283 0.396654 0.087770 0.095986 -0.529351 0.413661 0.628873 1.586027 -0.000223 -0.436382 -0.230436 -0.874774 0.266382 -0.027280 -0.596739 -0.235603 -0.122714 0.499654 -0.496698 0.809024 -0.610664 0.736969 -0.170497 0.732636 0.173427 -0.204186 -0.529294
GAAG -0.346822 -0.348587 0.080131 0.467209 -0.465458 -0.804411 0.014917 -0.102131 0.271575 0.220409 0.344440 -0.532912 0.260658 0.311502 0.614776 1.009346 -0.888147 -0.209005 -1.029853 0.182740 0.871092 -0.065469 -0.895608 -0.524618 -0.118851 -0.057295 0.523942 0.191746 -0.286433 -1.084532
CAGG 0.200512 -0.230994 0.316196 -0.055924 -0.802893 -0.102704 1.102424 -0.558851 -0.126906 0.336985 0.724660 -0.015966 -0.436411 0.046489 -0.642093 1.099849 -0.270572 -0.842162 -0.774570 -0.044175 0.383176 1.053102 -0.867329 -0.440320 -0.059820 -0.514997 -0.114698 0.729066 -0.220920 -0.735384
UGCU -0.048194 0.054529 0.539285 0.242585 1.098280 -0.385279 0.265557 0.208636 -0.280201 0.320532 1.592253 -1.033117 0.010323 -0.421991 0.323696 -0.042012 -0.210300 -1.045283 -0.279120 -0.607219 0.344558 -0.370660 0.751249 -0.198478 0.412495 -0.195901 0.013695 -0.368338 -0.045458 -0.949298
AGCA -0.198203 -0.801117 -0.071089 0.104525 -0.699576 -1.186216 0.209196 -0.847635 -0.410811 0.336690 0.860707 -0.316830 -0.587953 -0.831395 -0.256949 0.827806 -0.498319 -0.349182 -0.523529 -0.450214 -0.118922 0.427854 -0.346492 -0.712984 -0.484056 -0.432993 0.220853 0.479405 0.133546 -1.354683
UUGA -0.124440 0.446321 0.593411 -0.338609 0.421477 -1.272850 -0.146726 0.580281 0.486279 -0.257273 1.525529 -0.960701 -0.801911 -0.028114 0.835167 0.254079 -0.582421 -0.110126 -0.441922 -0.145823 0.999278 -0.349058 -0.232270 -1.035606 0.157269 -0.306002 1.175976 0.078066 -0.536202 -0.631378
CUGG 0.378973 0.269506 0.391927 0.290392 0.441718 0.304130 1.150048 0.209245 -0.420268 0.406050 0.966726 -0.436854 0.155337 0.191646 -0.080616 0.344498 -0.421217 -1.363386 -0.708949 0.008229 0.961413 0.403712 -0.152959 -0.127750 0.638418 0.040546 -0.313147 -0.063786 -0.659331 -0.608527
CCAG -0.369522 -0.009465 -0.563574 0.196890 -0.356644 -0.221384 0.531882 -0.307623 0.413872 0.265649 0.881571 -0.129459 -0.172576 0.122775 -0.472339 1.316946 -0.610583 -0.670978 -0.120305 -0.192858 0.321188 1.413035 0.021428 -0.542637 -0.052321 -0.842674 0.126044 1.026363 -0.009076 -0.526884
UCAA -0.108474 -0.192864 -0.411102 0.328589 -0.250514 -0.235882 0.480484 -0.444999 -0.084039 0.252608 1.771658 -0.394779 -0.485767 -0.101811 -0.695341 0.753006 0.168725 -0.327543 -0.444777 -0.225974 -0.151829 -0.915297 -0.430799 -1.402821 0.110485 0.743025 1.464861 0.114938 0.048220 -1.041527
CCUU 0.002265 0.929875 0.040074 0.212941 0.435683 0.273857 -0.041181 -0.095879 0.530990 0.431195 1.984060 -0.224050 -0.627553 -0.013611 0.161722 0.255394 -0.824224 -0.787074 0.176424 -0.030883 0.647518 0.330728 1.101337 -0.871133 0.533260 -0.393329 0.721572 0.836734 -0.143107 -0.356865
AAGG 0.150129 -0.413318 0.359369 0.468490 -0.849011 -0.001423 0.598517 -0.319575 -0.365768 0.383556 0.855864 -0.108742 -0.068755 0.409318 0.555913 0.999880 -0.972643 -0.702128 -1.020678 0.344765 0.411113 0.025831 -1.166740 -0.858958 -0.180201 0.428776 0.502758 0.529210 -0.249204 -1.173504
UGGA 0.142852 0.281632 0.478025 0.073330 -0.101316 -0.634229 0.819779 0.758439 -0.174327 -0.192483 0.750284 -0.699541 -0.342956 0.376435 0.615900 0.303582 -0.617224 -0.830125 -0.554113 0.001785 1.133629 0.148760 -0.792499 -0.908162 0.489084 0.056012 0.528182 -0.158194 -0.830878 -0.682175
UCCA -0.291758 0.299247 -0.546395 0.291618 -0.267636 0.175465 0.627177 -0.320567 0.563163 -0.022289 1.450039 -0.303428 -0.591852 0.002568 -0.882689 0.952415 0.291114 -0.648379 0.146917 -0.262768 0.075452 0.395810 0.286910 -1.241550 0.354413 -0.012265 1.045655 0.541034 0.096587 -0.599597
AGAU 0.181322 -0.271023 0.174660 0.184233 -0.328222 -1.034080 0.068143 0.169409 0.597788 -0.358761 0.233218 -0.689281 -0.646659 -0.060917 0.453375 0.750722 -0.300159 -0.590573 0.031713 -0.484240 0.589976 -0.247742 -0.360332 -1.456075 0.112106 -0.616797 1.076429 -0.016228 -0.301471 -1.389287
AUCU 0.611143 -0.116485 -0.046446 0.248099 0.154699 -0.029042 0.512121 -0.083391 0.201468 -0.059950 0.865073 -0.423921 -0.437141 -0.290376 -0.421085 0.229396 0.338783 -1.037848 0.121046 -0.468992 0.547719 -0.903220 0.437646 -1.283469 0.795530 -0.019568 1.358436 -0.324362 -0.254978 -1.360937
AUUC 0.479421 0.274209 0.250661 0.141003 -0.362370 -0.294722 0.288252 -0.047188 0.582198 -0.009725 1.246778 -0.198500 -1.003501 -0.227570 -0.278557 0.354906 0.306153 -0.278205 0.185084 -0.217996 0.149452 -0.663514 0.493755 -1.382895 0.231430 -0.142944 1.589254 0.101963 0.029407 -0.866470
GAAU 0.079716 -0.189075 0.105791 0.351672 -0.303980 -0.704551 0.331107 0.541772 0.023445 -0.381616 0.675593 -0.734844 -0.135809 0.210647 0.744871 0.403917 -0.328709 -0.278583 -0.183226 0.060291 0.658871 -0.733318 -0.293944 -1.259939 -0.096666 0.189056 1.330896 -0.286727 -0.395485 -1.145744
UGAG -0.368944 -0.277510 0.208508 0.031004 0.323208 -1.199369 0.027257 0.402877 0.429583 -0.148018 0.613624 -0.946171 0.020653 -0.031331 0.414416 0.844420 -0.621317 -0.548678 -0.758014 -0.362244 1.016052 0.165880 -0.558138 -0.201732 0.286799 -0.719914 0.470753 -0.035798 -0.431744 -0.768614
CUCA 0.313506 0.167224 -0.440484 0.103249 0.390445 -0.176467 0.654914 -0.810976 0.018341 0.373224 1.285789 -0.223906 -0.397058 -0.464456 -1.457610 0.629715 0.314793 -0.757383 -0.463758 -0.416007 0.444778 -0.231920 0.039795 -0.748523 0.385430 -0.002611 0.574340 -0.121842 -0.137075 -1.021851
AGUU 0.030644 -0.609867 0.606798 -0.325196 0.208409 -0.671274 -0.518116 -0.418637 1.020488 0.357337 1.867488 -0.776318 -0.644779 -0.010751 0.401931 0.994746 -0.431077 0.132883 -0.513332 -0.291844 0.289311 -0.304759 -0.486028 -0.660574 -0.011134 -0.468597 1.112493 0.894242 0.568785 -0.506604
AACU 0.553858 0.046957 -0.464779 -0.159184 0.636267 -0.219080 0.152341 -0.508789 -0.708568 0.410073 1.867004 -0.412842 -0.190140 -0.296742 0.022315 0.043676 -1.042247 -0.465037 -0.295574 0.151735 0.809806 -1.156138 -0.470859 -0.818044 -0.071664 0.752454 0.835066 -0.137992 -0.475707 -1.091617
UGGG 0.416405 -0.059891 1.001281 0.190168 -0.170203 0.229220 1.422284 0.809159 -0.390110 0.191754 1.015793 -0.508356 -0.216869 0.508197 0.512564 0.463323 -0.309844 -1.192168 -0.769678 0.146284 0.687360 0.595678 -0.845987 -0.311977 0.561541 0.051166 -0.148577 0.200835 -0.433717 -0.360687
CCCA -0.575165 0.523863 -1.061281 0.191136 -0.260762 0.282216 0.727807 -0.201957 0.165805 -0.055050 1.326529 -0.005419 -0.390092 0.104556 -0.464174 0.938752 -0.545482 -0.734654 0.552137 -0.109032 0.103605 1.343802 0.536502 -0.908751 -0.245206 -0.448406 0.340419 1.030892 -0.123911 -0.368142
UGCA -0.358041 -0.426630 0.208232 -0.024170 0.212345 -1.066846 0.754103 0.177969 -0.746995 0.043738 1.545262 -0.883598 -0.574457 -0.771908 -0.019658 0.357011 0.027861 -0.547004 -0.143682 -0.735050 -0.186302 0.189284 0.214198 -0.464062 -0.378045 -0.186428 -0.038648 -0.086083 -0.049138 -0.823348
UGAU 0.043839 0.044772 0.325711 -0.040349 0.494817 -1.012836 0.423366 1.045104 0.261186 -0.662926 0.887504 -1.152922 -0.610790 -0.030941 0.600510 0.208884 0.043870 -0.656798 0.336034 -0.652455 0.638030 -0.478657 0.078318 -1.074031 0.291401 -0.482683 1.050966 -0.424675 -0.356253 -0.832046
AUCA 0.374709 -0.350211 -0.270706 -0.048033 -0.522640 -0.617413 0.860921 -0.227913 -0.008286 -0.372665 0.809057 -0.421994 -0.968021 -0.476264 -0.764683 0.612715 0.579870 -0.431619 0.249694 -0.560159 -0.068995 -0.349931 -0.359003 -1.503143 -0.164885 -0.002451 1.373514 -0.082152 -0.047825 -1.257724
GGAG 0.037642 -0.084703 0.679036 0.205979 -0.641652 -0.393934 0.397120 0.018757 0.260293 -0.149620 -0.057278 -0.029088 -0.005171 0.352911 0.434822 1.017389 -0.683919 -0.618560 -1.168458 0.119008 0.974005 0.499716 -1.170295 -0.005004 0.235382 -0.605125 0.151649 0.431221 -0.697772 -0.871476
CUCC 0.011727 0.643790 -0.797650 0.752672 0.599802 0.784412 0.476093 -0.342772 0.496890 0.105976 1.036949 0.214944 -0.059060 -0.219562 -0.855150 0.633220 -0.079086 -0.883868 -0.249252 -0.178235 0.690094 0.190255 1.063387 -0.392073 0.510800 -0.245460 0.214720 0.151868 -0.158547 -0.388585
UGUA 0.635958 -1.367827 -0.061914 -0.539734 0.938222 -0.061874 -0.100437 0.577516 -0.091783 -0.221541 1.386882 -0.907337 -0.206411 -0.157908 0.747139 0.265560 -0.533538 -0.479249 0.646094 -0.816777 -0.014599 -0.496594 -0.519425 -0.814046 0.142431 -0.125827 0.644175 0.039872 0.445211 -0.650862
CUGC -0.172442 0.164825 -0.128394 0.523761 0.810460 -0.249503 0.613566 -0.161923 -0.583371 0.507299 1.249782 -0.497193 0.077742 -0.709069 -0.334804 0.072887 -0.214589 -1.042774 -0.358457 -0.468477 0.416551 0.167584 1.116468 0.088126 0.104003 -0.184888 -0.662356 -0.267596 -0.245971 -0.795980
GCAG -0.383461 -0.694117 0.561903 0.286194 -0.480473 -1.010701 0.395663 -0.443378 -0.287975 0.348254 0.559104 -0.289995 -0.119379 -0.572796 -0.046444 0.887185 -0.252197 -0.407717 -0.828361 -0.423578 -0.009945 0.751520 -0.236656 0.229117 -0.378470 -0.763592 -0.406942 0.358056 0.006725 -0.977896
UACA 0.956580 -0.532798 -0.117619 -0.935406 0.456911 -0.320033 0.121958 -0.705431 -0.468732 -0.156858 1.273871 -0.358536 -0.858444 -0.348726 -0.063079 0.152125 -0.433252 -0.333409 0.665253 -0.649585 -0.166524 -0.405887 -0.777199 -1.365994 -0.453138 -0.279228 0.577051 0.210584 0.196339 -0.973423
CAGU -0.098370 -0.892961 -0.125855 -0.488953 0.324800 -0.508627 0.194751 -0.293248 0.494111 0.303752 1.674894 -0.714523 -0.280022 -0.225058 -0.574055 1.191089 0.040338 -0.115723 -0.142739 -0.665735 -0.113988 0.346244 -0.762960 -0.343386 0.062645 -0.676868 0.578367 0.718923 0.481674 -0.413840
ACUG 0.550079 -0.017729 -0.321756 -0.593105 1.148526 -0.568586 0.665815 -0.060740 -0.629841 0.324256 1.402952 -0.870616 -0.169566 -0.168416 -0.130020 0.056453 -0.699734 -0.670655 -0.279659 -0.211097 0.970353 -0.315742 -0.621854 -0.416557 0.011156 0.067087 -0.089297 -0.430405 -0.627995 -0.566909
AGCU 0.042281 -0.391429 0.288160 0.412888 0.303074 -0.675111 -0.291160 -0.781301 0.030874 0.690975 0.844012 -0.375659 -0.077306 -0.499083 -0.071468 0.587614 -0.664430 -0.820828 -0.605902 -0.393885 0.462148 -0.133248 0.297959 -0.363073 0.223394 -0.372882 0.057508 0.115390 -0.039353 -1.534293
CAUG -0.069286 -0.269750 0.020671 -0.194108 -0.047263 -0.750541 1.253755 0.601181 -0.497083 -0.348202 1.106061 -0.931673 -0.654694 -0.313832 -0.128799 0.401377 0.254945 -0.767812 0.393687 -0.688529 -0.019350 0.495189 -0.105594 -1.085735 -0.147919 -0.340755 0.345959 -0.034025 -0.207106 -0.627348
CCUC -0.018158 0.700428 -0.827795 0.450120 0.306772 0.554062 0.398126 -0.271643 0.295913 0.409762 1.174433 0.135552 0.076414 -0.035619 -0.933121 0.609450 -0.196352 -0.793802 0.221114 -0.088741 0.502305 0.304801 1.117823 -0.377068 0.721584 -0.350698 0.547398 0.408941 -0.325703 -0.370153
GAGG 0.215229 -0.226595 0.739267 0.196080 -0.549697 -0.433007 0.710271 -0.001709 0.361915 0.273210 -0.105801 -0.323097 0.058507 0.629406 0.454950 0.976291 -0.608622 -0.555144 -1.193330 0.426028 1.077638 0.651945 -1.043273 -0.240119 0.042553 -0.380907 -0.009262 0.329322 -0.599201 -0.718519
CCCU -0.064952 0.753826 -0.644935 0.480699 0.546696 0.741983 0.328891 -0.016999 0.291287 0.307540 1.302433 -0.112826 0.087918 0.101622 -0.215344 0.475202 -0.851841 -1.098413 0.357939 -0.076066 0.642904 0.789487 1.289123 -0.433297 0.636455 -0.440178 0.352295 0.779190 -0.298527 -0.486961
AGGG 0.515665 -0.395089 0.746333 0.165978 -0.895160 0.125869 0.942588 -0.223816 -0.021545 0.465687 0.290956 0.025944 -0.227674 0.520364 0.264014 0.933188 -0.676667 -0.955757 -1.019146 0.258903 0.582675 0.732898 -1.160262 -0.435627 0.237865 -0.166890 -0.037965 0.688833 -0.284726 -0.877122
GCUG -0.423675 -0.026504 0.606294 0.475558 0.534810 -0.552999 0.481922 0.330839 -0.537780 0.245267 0.817254 -0.774414 0.422970 -0.340590 0.354322 0.297657 -0.276157 -0.982611 -0.737383 -0.435712 0.372547 0.325546 0.341019 0.535862 0.112398 -0.310290 -0.576676 -0.297617 -0.292644 -0.854784
CAGC -0.240146 -0.146213 -0.185541 0.276720 -0.224842 -0.723662 0.462785 -0.836245 -0.293863 0.499989 0.816298 -0.017063 -0.450430 -0.870070 -0.818524 0.683853 -0.099611 -0.479885 -0.460299 -0.532061 -0.118353 0.736403 0.489407 -0.223362 -0.335691 -0.527353 -0.449736 0.316338 0.173900 -0.765529
UAGA 0.557498 -0.755131 -0.028283 -0.273529 0.004666 -0.764675 -0.654566 -0.411241 0.502683 0.059855 0.229246 -0.481699 -0.533977 0.063324 0.698434 0.459355 -1.133999 -0.698945 -0.012454 -0.342048 0.750640 -0.176151 -0.634027 -1.229826 0.414774 -0.546138 1.110398 0.354009 -0.125228 -1.544317
UCUA 0.763031 -0.475255 -0.119375 -0.065216 0.538750 0.418642 -0.187803 -0.814020 0.242736 0.268174 0.808355 -0.439085 -0.166683 -0.066991 -0.217728 0.107189 -0.134210 -1.089577 0.171267 -0.457062 0.347762 -0.987778 0.138320 -1.229267 0.962904 0.102166 1.066476 0.023635 0.191340 -1.316251
AGUG -0.386406 -1.028055 0.050690 -0.237995 0.448801 -0.693300 0.118159 0.201905 0.336750 0.123917 1.108623 -1.226387 0.399687 0.099367 0.376386 1.194906 -0.379192 -0.286579 -0.420040 -0.497491 0.348480 0.223676 -0.900258 -0.230613 0.039835 -0.556110 0.365831 0.434242 0.189410 -0.595770
UUGG 0.548094 0.377506 1.490380 -0.102125 -0.085591 -0.052158 0.854586 0.663236 -0.014585 0.379666 1.818393 -0.543437 -0.883248 0.251889 0.838894 0.192055 -0.448350 -0.817992 -0.865072 0.116484 0.686752 0.201338 -0.411614 -0.733867 0.454297 0.137474 0.338395 0.378168 -0.170842 -0.278559
CACU 0.595089 0.274356 -0.357057 -0.642461 0.635575 -0.332435 0.583146 -0.716734 -0.514629 0.511128 1.580619 -0.368537 -0.635223 -0.489934 -1.081559 0.089868 -0.233733 -0.539647 -0.023314 -0.339846 0.520722 -0.075865 -0.175548 -0.741205 0.087003 -0.239495 0.063963 -0.006641 -0.377578 -0.540196
CCAA -0.717377 0.259205 -1.044760 0.438463 -0.379204 0.139273 0.573689 -0.362628 -0.286526 0.073706 1.855697 -0.231992 -0.356068 0.015423 -0.072701 0.946900 -0.766762 -0.527182 0.373248 0.072081 -0.056047 0.494771 0.258270 -1.262885 -0.509120 0.360262 0.875487 0.934968 -0.102383 -0.791697
AUUG 0.186032 -0.103746 0.722863 -0.183250 0.113538 -0.850222 0.522252 0.787560 0.047757 -0.247993 1.530504 -1.003871 -0.878585 -0.130354 0.877272 0.153566 -0.138128 -0.316161 -0.054925 -0.324513 0.326138 -0.293868 0.019887 -1.219325 -0.174530 -0.180888 0.911653 0.096190 -0.063677 -0.705243
CAAU 0.040217 -0.203747 -0.299444 0.108843 -0.390685 -0.536926 0.701966 -0.110137 -0.640304 -0.073201 1.732426 -0.473756 -0.672462 -0.301608 -0.161911 0.473481 -0.035351 -0.438320 0.354477 -0.397408 -0.343146 -0.491582 -0.051565 -1.508835 -0.463615 0.309201 1.159088 0.190574 -0.014749 -1.103549
CUUG 0.194944 0.654757 0.693289 -0.057643 0.814078 -0.325921 0.292634 0.255794 0.056471 0.513098 1.928449 -0.754908 -0.512812 -0.186151 0.274538 0.083128 -0.518866 -0.814120 -0.599416 -0.135433 0.833799 -0.055380 0.403743 -0.438713 0.527732 -0.189290 0.216313 0.077724 -0.291688 -0.422992
CAAG -0.525311 -0.331234 -0.389154 0.342123 -0.483462 -0.515675 0.372572 -0.640409 -0.262193 0.411852 1.375282 -0.275868 -0.227469 -0.118005 -0.311013 1.205284 -0.580853 -0.260157 -0.610705 -0.030227 -0.015042 0.213668 -0.659184 -0.889252 -0.349227 0.093353 0.493611 0.598967 -0.029490 -1.021592
GGGA 0.321171 0.336990 0.733623 0.239059 -0.634571 -0.044511 0.954203 0.336977 -0.123027 -0.326980 0.047891 0.129000 -0.179828 0.502538 0.523324 0.618495 -0.661347 -0.689953 -0.956902 0.347280 1.050778 0.349799 -1.320068 -0.385301 0.208411 -0.277342 0.267799 0.237804 -0.972010 -0.770492
UCCC -0.114429 0.601296 -0.857629 0.825337 0.242741 0.895644 0.486364 0.093211 0.990366 -0.198444 1.205301 0.145422 -0.222157 0.060092 -0.693006 0.912679 0.035722 -0.811915 0.040873 -0.188678 0.430083 0.462539 1.012650 -0.691642 0.414125 -0.317365 0.742799 0.666581 0.090571 -0.264981
UAUG 0.481399 -0.796328 0.387004 -0.221861 0.408626 -0.391283 0.451805 0.811033 -0.290364 -0.447870 0.976367 -1.117618 -0.435992 -0.036298 1.001739 0.047195 -0.270930 -0.957848 0.516815 -0.788811 0.078141 -0.410566 -0.112584 -1.243787 0.226265 -0.221595 0.638286 -0.176456 0.105761 -0.924483
CAUA 0.532335 -0.568562 -0.175171 -0.572696 -0.266991 -0.496261 0.509541 -0.402938 -0.417957 -0.324677 0.960294 -0.379181 -0.997028 -0.387151 0.003762 0.246407 -0.070579 -0.563680 0.808652 -0.751038 -0.418559 -0.022125 -0.097721 -1.502127 -0.322820 -0.291661 0.925426 0.349565 0.193383 -1.239552
AUGG 0.447486 -0.316228 0.685392 0.205102 -0.581325 -0.161914 1.492791 0.898583 -0.547781 -0.091983 0.620660 -0.711400 -0.348318 0.506256 0.790415 0.334058 -0.111592 -1.078015 0.039002 -0.008575 0.343296 0.172479 -0.656314 -1.210478 0.082023 0.088152 0.356896 -0.041304 -0.473837 -0.909259
UAAG 0.174601 -0.995351 0.061799 0.164363 -0.120062 -0.256655 -0.492554 -0.424882 -0.002515 0.267921 1.050656 -0.365122 -0.142270 0.053743 0.840813 0.706941 -1.087249 -0.431831 -0.388177 -0.174114 0.160892 -0.637669 -0.564084 -1.033571 0.070059 0.041818 0.883611 0.494669 0.342499 -1.451464
CUUA 0.660878 0.207836 0.221423 -0.212650 0.663333 -0.025214 -0.364727 -0.762016 0.139727 0.394476 1.545957 -0.224806 -0.621783 -0.138315 0.309649 -0.117254 -0.739359 -0.775675 0.122055 -0.344599 0.439308 -0.625903 0.350476 -1.102734 0.303024 -0.132647 0.774687 0.233162 0.069675 -1.148212
CCAU -0.045811 0.205470 -0.453346 -0.014497 -0.500563 -0.056135 0.869975 0.331960 0.068435 -0.100009 1.238237 -0.362143 -0.780519 -0.069267 -0.078450 0.516636 -0.142508 -0.750302 1.084382 -0.318450 -0.065543 0.782719 0.837509 -1.289107 0.011377 -0.542609 0.919549 0.679772 -0.025362 -0.594468
UUAG 0.630879 -0.651644 0.886331 -0.287772 -0.082146 -0.544627 -0.637017 -0.512821 0.642593 0.525691 1.087626 -0.281894 -0.916511 -0.109321 0.672601 0.404531 -0.850616 -0.476037 -0.298174 -0.301206 0.382237 -0.033729 -0.301799 -0.976387 0.415004 -0.441622 0.803022 0.731410 0.404986 -0.955453
CUAA 0.393666 -0.312917 -0.348153 0.100697 0.517106 0.329674 -0.344011 -0.781053 -0.498943 0.353230 1.222312 -0.417025 0.188730 -0.057667 0.270572 0.141247 -0.982268 -0.889821 -0.000275 -0.160999 0.404616 -0.906929 0.190111 -1.103756 0.173827 0.400312 0.953030 0.151177 -0.016093 -1.621212
GAUU 0.342951 0.307915 0.854574 -0.018656 -0.072791 -0.959819 0.107977 0.522387 1.012477 -0.183153 0.659813 -0.643398 -1.013877 0.139651 0.752469 0.274828 0.046006 -0.172734 -0.146203 -0.110376 0.748368 -0.515798 -0.050917 -1.405260 -0.086687 -0.438882 1.024931 0.044487 -0.195297 -0.808310
AAUC 0.130889 -0.201424 -0.516859 0.450201 -0.490427 -0.088336 0.421547 0.095284 -0.194875 -0.169836 1.145051 -0.158102 -0.230213 -0.233856 -0.363985 0.512386 0.010181 -0.441732 0.164485 -0.092118 0.162975 -0.982709 0.142386 -1.189264 0.119320 0.426246 1.835200 -0.062878 -0.276576 -1.248255
GCUU 0.003117 0.437029 1.135400 0.304895 0.329869 -0.457550 -0.150327 -0.387098 -0.104995 0.578508 1.512551 -0.378225 -0.412877 -0.435274 0.516196 0.050514 -0.381855 -0.706510 -0.661098 -0.313047 0.218251 -0.302778 0.812808 -0.179402 0.185061 -0.276218 0.057238 0.116885 0.109866 -1.006770
AAGC -0.502390 -0.418440 -0.265293 0.814936 -0.482670 -0.674747 -0.127044 -0.586244 -0.475971 0.383153 1.075944 -0.223083 -0.010262 -0.562073 0.366408 0.738742 -0.968932 -0.389052 -0.654692 -0.115061 -0.008878 -0.214784 0.169247 -0.692073 -0.433188 0.225493 0.279675 0.324042 0.205619 -1.464353
UACU 1.527929 -0.325166 0.114944 -0.753811 1.335198 0.143311 -0.170703 -0.587277 -0.213303 0.402682 1.386864 -0.421977 -0.461968 -0.195409 0.162673 -0.245238 -0.755449 -0.770447 0.398776 -0.453552 0.541127 -1.082115 -0.077729 -0.875001 0.325818 -0.238278 0.578684 -0.123320 -0.020201 -0.941120
AGUA 0.597740 -1.651919 -0.256639 -0.456637 0.226689 -0.294246 -0.518388 -0.610846 0.342773 0.100171 0.833929 -0.500125 -0.102206 -0.076217 0.538187 0.973428 -0.851760 -0.147174 0.251270 -0.503635 0.079904 -0.411939 -0.930254 -0.872246 -0.177716 -0.387968 0.911814 0.634333 0.484296 -1.215101
UGGU 0.369855 -0.602275 0.782286 -0.246090 0.533842 0.423861 0.880825 0.959826 0.104940 0.152475 1.691466 -0.957977 -0.074523 0.443663 0.496263 0.511648 -0.035354 -0.788335 -0.204192 -0.372851 0.209354 0.120590 -0.806453 -0.390969 0.592132 0.087138 0.415574 0.222538 0.208992 0.043079
GUGA -0.499740 -0.507343 -0.079634 -0.256248 0.499777 -0.874237 0.185880 0.907409 0.203328 -0.530038 0.654343 -1.091641 0.074167 0.168711 0.394731 0.701547 -0.490764 -0.209448 -0.338626 -0.351203 0.712565 0.034811 -1.025718 -0.247989 0.275027 -0.337847 0.560547 -0.101936 -0.411749 -0.257953
UCAC 0.350098 0.339333 -0.478585 -0.453114 0.415892 -0.155693 0.672653 -0.743686 0.190942 0.042617 1.302692 -0.297574 -0.805555 -0.333901 -1.494054 0.378699 0.651752 -0.442808 -0.001159 -0.418079 0.078100 -0.104096 -0.432505 -0.927080 0.182082 0.100050 0.621929 -0.046324 -0.067021 -0.445721
ACCA 0.163056 0.149365 -1.012411 -0.636004 -0.084858 -0.391924 0.570643 -0.467968 -0.422512 -0.048844 1.350747 -0.280017 -0.761514 -0.085986 -0.474742 0.493375 -0.807615 -0.216079 0.691589 -0.007887 0.199251 0.644929 -0.519590 -1.118361 -0.698884 -0.159495 0.485319 0.723772 -0.320586 -0.432650
UGUC -0.267847 -0.413111 -0.242002 0.042531 0.776367 0.031853 0.546586 0.512044 0.310412 0.273136 1.552502 -1.095897 0.264265 0.164336 -0.588771 0.755496 0.540283 -0.534402 -0.037457 -0.580597 -0.012303 -0.286671 -0.064888 -0.625877 0.848185 -0.044510 0.725063 -0.024042 0.183789 -0.049493
GACA 0.111247 0.212118 -0.305021 -0.886204 -0.075885 -1.335130 0.550208 -0.371474 -0.252686 0.021755 0.516126 -0.573263 -0.689852 -0.002455 -0.391798 0.331209 -0.497236 0.029824 -0.177330 -0.056491 0.856961 0.399813 -1.138673 -1.030737 -0.355621 -0.478025 0.274658 0.130858 -0.966120 -0.513720
UGCC -0.598688 0.269261 -0.284700 0.477516 0.424224 -0.013350 0.539280 0.548199 -0.026694 0.088173 1.449033 -0.674343 0.054612 -0.118086 0.333876 0.377665 -0.494058 -0.888074 0.291352 -0.410520 0.181967 0.827533 1.184059 -0.331739 0.002692 -0.348377 -0.194159 0.312573 0.001873 -0.362267
GGCA 0.209226 -0.247462 0.737095 0.056404 -0.911571 -0.344740 1.291497 -0.246868 -0.847029 0.353107 0.775195 -0.118198 -0.547225 -0.276914 -0.086966 0.489577 -0.200083 -0.746402 -0.591584 -0.051568 0.008676 0.711806 -0.611897 -0.332688 -0.318840 -0.077693 -0.243324 0.427532 -0.196489 -0.792231
GUGU -0.302700 -1.346835 0.187586 -0.392107 1.038974 0.024757 0.124296 1.108027 0.372348 -0.191831 1.577536 -1.267936 0.150953 0.187701 0.404650 0.727503 0.125197 -0.289696 -0.197058 -0.727057 -0.162257 0.047337 -0.960621 0.052606 0.717455 -0.097310 0.347240 0.204110 0.572926 0.478439
ACAC 0.318850 0.428688 -0.821331 -1.229258 0.590802 -0.472343 0.433865 -1.024131 -0.767347 -0.257180 1.074356 -0.168712 -0.873931 -0.372980 -0.900027 -0.094881 -0.360300 -0.053424 0.476938 -0.231656 0.266300 0.314354 -0.995789 -0.885228 -0.753549 0.059044 0.055588 0.045022 -0.428692 -0.209100
ACCU 0.525647 0.506509 -0.867167 -0.429867 0.839588 0.222353 0.193007 -0.287510 -0.176847 0.243293 1.472614 -0.317850 -0.288869 0.027388 -0.195089 0.151409 -1.153908 -0.738061 0.541103 0.051158 0.933597 0.171724 0.253063 -0.793452 0.134682 -0.282800 0.422915 0.490923 -0.566971 -0.422548
AGGU 0.480560 -0.863872 0.591246 -0.244387 -0.250138 0.257487 0.455158 -0.096058 0.415359 0.470186 1.012384 -0.367628 -0.113504 0.608213 0.240459 1.138729 -0.411941 -0.629948 -0.630126 -0.040568 0.209970 0.327419 -1.254550 -0.429475 0.257372 -0.222058 0.458292 0.790169 0.309443 -0.563775
GUGG 0.035045 -0.605498 0.717837 -0.048301 -0.020183 0.190590 1.006243 0.904094 -0.183452 0.051996 0.877702 -0.684933 0.084631 0.517364 0.453878 0.575172 -0.252617 -0.856850 -0.680657 -0.105282 0.344231 0.633229 -1.230922 0.081532 0.608888 0.001368 -0.207038 0.238197 -0.101290 0.096341
GAUG -0.049669 -0.104490 0.500612 0.297726 0.054805 -1.098941 0.911396 1.105280 0.319026 -0.430237 0.153222 -1.302165 -0.089686 0.325309 0.905661 0.484526 -0.038630 -0.716423 -0.002594 -0.228465 0.821003 0.005944 -0.530372 -1.064856 -0.010147 -0.415898 0.332139 -0.600371 -0.576253 -0.839666
CCAC -0.242998 0.787542 -1.036362 -0.321727 0.190367 0.255357 0.606116 -0.549040 -0.078742 -0.038697 1.165215 -0.044713 -0.528155 -0.009894 -0.827495 0.360209 -0.385233 -0.551676 0.694528 -0.124754 0.183558 1.169774 0.253589 -0.765481 -0.312528 -0.212430 -0.040336 0.677589 -0.323299 -0.047830
CAUC 0.243848 0.043899 -0.504600 -0.035210 -0.601623 -0.265370 0.916688 -0.116594 -0.133621 0.061388 0.939571 -0.133990 -0.665144 -0.497808 -1.320398 0.539046 0.699713 -0.518804 0.480888 -0.404221 -0.100163 0.085882 0.506890 -0.904802 0.354555 -0.243103 1.120805 0.143615 -0.274064 -0.739184
UUAC 0.911101 0.184367 0.332937 -0.873320 0.920776 -0.035813 -0.317324 -0.634306 0.174606 0.000365 1.565731 -0.167250 -1.107420 -0.191844 0.285352 -0.237120 -0.557531 -0.202404 0.467846 -0.261084 0.190965 -0.523395 -0.138393 -1.117065 -0.436011 -0.203954 0.707381 0.379306 0.148656 -0.433047
GUAA 0.403357 -1.373109 -0.250707 -0.172270 0.124521 0.130020 -0.212709 0.300946 -0.235485 -0.169514 1.357355 -0.431680 -0.074839 0.062008 0.750717 0.530109 -0.849179 -0.175426 0.031339 -0.268518 -0.142953 -0.831075 -1.080836 -0.731746 -0.097184 0.404588 0.963310 0.261216 0.514435 -0.731156
UUGC -0.191610 0.192972 0.859608 0.296488 0.453717 -0.727445 0.115304 0.193347 -0.144181 0.306993 1.987859 -0.683689 -0.736307 -0.612547 0.583680 -0.139498 -0.211474 -0.437560 -0.374841 -0.402179 0.102498 0.017190 0.997846 -0.496658 -0.125508 -0.224265 0.033229 0.200535 0.248887 -0.519912
GCCU -0.360677 0.354721 0.271290 0.547778 0.182987 0.075684 0.103038 -0.109209 -0.187809 0.623427 1.012462 -0.452860 0.249705 -0.055547 0.354946 0.318691 -0.671360 -1.089279 0.013116 -0.187260 0.338848 0.773331 1.199641 -0.088107 0.535651 -0.377442 -0.058586 0.524270 -0.184444 -0.817884
GCAA -0.448570 -0.512521 0.080734 0.451571 -0.686449 -0.840321 0.473526 -0.522832 -1.144092 0.254807 1.475229 -0.381510 -0.286582 -0.696365 0.305854 0.572866 -0.595924 -0.322437 -0.601774 -0.129906 -0.341007 -0.153160 -0.169194 -0.519858 -0.816483 0.493113 0.384362 0.268696 0.006283 -1.349938
AGGC 0.074815 -0.394715 0.374348 0.462621 -0.858283 -0.243967 0.681620 -0.570498 -0.310926 0.781591 0.357041 -0.015367 -0.209839 -0.116403 0.093336 0.562888 -0.627223 -0.922564 -0.866585 0.190051 0.287166 0.799196 -0.037518 -0.470786 -0.181194 -0.152972 -0.444663 0.522648 -0.042377 -1.017987
UGGC 0.034039 -0.043010 0.619615 0.280752 -0.027853 -0.129865 1.122544 0.432039 -0.637021 0.517716 1.142602 -0.625040 -0.210350 -0.169873 0.283789 -0.044746 -0.197172 -1.124002 -0.387022 -0.126085 0.183212 0.610460 0.425358 -0.443980 0.198036 0.107796 -0.550322 0.066362 -0.030694 -0.452031
GCCA -0.749743 0.079081 -0.167797 0.201263 -0.749791 -0.376674 0.646385 -0.221742 -0.487829 0.370258 1.068431 -0.391029 -0.179691 -0.087046 0.069577 0.599475 -0.521652 -0.723449 0.352413 -0.175117 -0.309944 1.375123 0.554780 -0.495510 -0.313328 -0.302060 -0.097462 0.798547 -0.094215 -0.815154
AUAG 0.562491 -1.179243 0.261411 -0.118348 -0.414684 -0.678599 -0.070018 -0.353556 0.268268 0.010311 0.338641 -0.496797 -0.586064 -0.012790 0.696552 0.608144 -0.690052 -0.750654 0.197587 -0.492198 0.189390 -0.107692 -0.427704 -1.327187 0.103214 -0.557504 0.956351 0.477077 0.140394 -1.612283
CUAU 0.853039 -0.262087 0.010116 -0.196646 0.623240 0.178635 0.141723 -0.371247 -0.243008 0.178531 0.955787 -0.560806 -0.231652 -0.175920 0.250697 -0.163936 -0.346283 -1.111282 0.639596 -0.613991 0.331740 -0.697213 0.648894 -1.251624 0.635456 -0.183987 0.890305 0.002765 -0.045328 -1.470859
AGCC -0.519283 -0.156346 -0.550060 0.596382 -0.452144 -0.279324 -0.011093 -0.470287 0.181563 0.415945 0.700926 0.066596 -0.068042 -0.188716 0.072419 0.898598 -0.976632 -0.619777 -0.075909 -0.211184 0.222791 1.124721 0.733277 -0.473114 -0.091885 -0.563425 -0.006899 0.856419 0.031258 -0.966720
GGCU 0.342991 0.231467 1.022721 0.385741 0.184858 0.343536 0.694741 -0.181579 -0.379127 0.638657 0.795476 -0.205975 0.056304 -0.028014 0.151888 0.127751 -0.285139 -1.288587 -0.820965 0.005633 0.460890 0.105804 0.140970 -0.047531 0.495948 -0.095961 -0.240635 -0.015210 -0.258639 -0.940317
GGGG 0.545236 0.090841 1.327498 0.238466 -0.752908 0.666295 1.407894 0.439719 -0.363412 0.108353 0.383087 0.217199 0.029907 0.659171 0.486438 0.673829 -0.361458 -0.961943 -1.127627 0.423486 0.561267 0.707577 -1.216851 0.160578 0.271527 -0.102784 -0.353623 0.387508 -0.588242 -0.370386
CCCC -0.395114 0.801698 -1.373454 0.591531 0.116637 0.889972 0.566728 0.052804 0.455676 -0.078203 1.099767 0.378345 -0.119124 0.068538 -0.408001 0.821232 -0.754163 -0.664975 0.519244 0.050117 0.459922 1.298747 1.243363 -0.475638 -0.200564 -0.585806 0.128370 1.012043 -0.139086 -0.000509
GCAU 0.118091 -0.515271 0.704567 0.043734 -0.587440 -0.862271 0.712865 0.171190 -0.624099 -0.046891 0.867418 -0.427048 -0.775282 -0.793470 0.175548 0.085826 0.313157 -0.614501 0.083837 -0.682793 -0.456527 0.110823 0.445980 -0.597895 -0.234572 -0.538875 0.332677 -0.052920 0.086288 -1.136061
AUGC -0.306852 -0.349770 -0.010053 0.506123 0.049401 -0.746816 0.703770 0.479613 -0.607667 -0.208620 0.869925 -0.803215 -0.222095 -0.560573 0.548197 0.029892 -0.087571 -0.830672 0.389870 -0.679557 -0.236822 -0.090092 0.751724 -0.944795 -0.502711 -0.243086 -0.045407 -0.401128 0.025193 -1.172167
GUCU 0.011926 -0.535246 0.021566 0.193962 0.797816 0.435074 0.187058 -0.072152 0.509975 0.434521 1.117906 -0.785055 0.294083 0.201711 -0.612353 0.554352 0.218908 -0.854003 -0.485953 -0.514523 0.280672 -0.452334 -0.310885 -0.399269 1.334322 0.106409 0.588834 -0.103687 0.296436 -0.312547
AGAC 0.019481 0.315175 -0.659105 -0.735429 0.134607 -1.010416 -0.182715 -0.778590 0.108048 0.034539 0.283306 -0.327162 -0.561615 0.012529 -0.296594 0.366414 -1.007535 -0.167018 -0.180553 -0.001814 1.112179 0.478285 -0.841116 -0.798804 -0.082476 -0.436909 0.467298 0.333831 -0.706158 -0.694265
GUCA -0.166765 -0.795953 -0.326256 -0.201388 0.025617 -0.211825 0.633195 -0.130246 0.250805 0.158635 1.252457 -0.613297 -0.227722 -0.014799 -0.919794 1.057343 0.576740 -0.291603 -0.405646 -0.486104 -0.241210 -0.036144 -1.124270 -0.775620 0.479070 0.199142 0.612526 0.147894 0.381246 -0.335774
UGAC -0.112587 0.621341 -0.358415 -0.833136 0.965449 -0.957239 0.177882 0.306903 -0.110266 -0.305347 0.943252 -0.922024 -0.412346 0.068327 -0.205186 -0.020216 -0.499509 -0.304405 0.092240 -0.190533 1.003402 0.200989 -0.306609 -0.594668 0.189290 -0.486519 0.371228 -0.134752 -0.873283 -0.211698
GGUG -0.002530 -0.334725 1.031737 -0.125403 0.325452 0.361756 1.131374 0.885332 -0.131402 -0.093514 0.972032 -0.754241 0.347056 0.599729 0.546150 0.805626 -0.068626 -0.748379 -0.586920 -0.124507 0.284282 0.516529 -1.158100 0.365500 0.225874 -0.334787 -0.009563 0.219930 -0.201662 -0.173123
CACC 0.162482 0.453098 -1.291234 -0.058482 0.203675 0.146826 0.826506 -0.173306 -0.057338 -0.036563 1.308316 0.284249 -0.640575 -0.317092 -0.995400 0.541167 -0.496693 -0.346975 0.487533 -0.122381 0.261821 0.916182 0.303342 -0.590070 -0.437908 -0.453727 -0.077257 0.583684 -0.200772 0.057993
GUAU 0.853111 -1.347220 0.201770 -0.362308 0.248887 0.090602 -0.017748 0.714145 0.100577 -0.383180 0.873715 -0.514923 -0.529450 -0.097931 0.664276 0.179131 -0.146115 -0.498822 0.482897 -0.829905 -0.326557 -0.554397 -0.634623 -0.912188 0.453845 -0.167737 0.922738 0.035578 0.499930 -0.544516
AUAC 0.884085 -0.206770 -0.322087 -0.777302 0.568048 -0.120132 0.147100 -0.425972 -0.266698 -0.629348 0.686643 -0.316513 -0.818674 -0.154814 0.249492 -0.124180 -0.349993 -0.424487 1.085249 -0.519585 -0.072252 -0.517888 -0.391607 -1.450924 -0.614627 -0.222230 0.792798 0.027582 -0.045892 -1.071165
GAGU -0.067710 -0.796532 0.198288 -0.131029 0.380060 -0.665057 -0.206270 0.065591 0.999359 0.103688 0.633182 -0.971486 0.285164 0.360894 0.339930 1.171393 -0.270787 0.130697 -0.584836 -0.183127 0.699718 -0.019631 -0.852671 -0.263991 0.201314 -0.695390 0.663247 0.292247 0.133867 -0.308205
GAUA 0.603374 -0.363288 0.255441 -0.106734 -0.071396 -0.653720 0.121780 0.207605 0.387406 -0.617232 -0.052461 -0.615536 -0.543128 0.252126 0.848060 0.281626 -0.392274 -0.536691 0.473326 -0.317019 0.531063 -0.642687 -0.486532 -1.565050 -0.272690 -0.496763 0.922824 -0.134909 -0.259553 -1.388318
ACUC 0.769187 0.347872 -0.682953 -0.379271 0.664279 -0.103596 0.399349 -0.786406 -0.270007 0.472276 1.224444 -0.033983 -0.236587 -0.279303 -1.166336 0.074036 -0.287304 -0.319320 -0.058257 -0.030358 0.746576 -0.666936 -0.170474 -0.595220 0.314396 -0.046222 0.575123 -0.343177 -0.615218 -0.662821
UAUC 0.803548 -0.439953 -0.054660 -0.019366 -0.064198 0.146693 0.207234 -0.000097 0.240132 -0.204652 0.851329 -0.144420 -0.580300 -0.290883 -0.333588 0.218075 0.328800 -0.702309 0.716980 -0.658010 0.025082 -0.832891 0.457896 -1.255555 0.664204 -0.178443 1.568925 -0.031251 0.108900 -1.154185
UAGU 0.571598 -1.421093 0.257458 -0.580556 0.616676 0.060269 -0.648848 -0.184647 0.647809 0.318368 1.246508 -0.839318 -0.165686 0.108190 0.502041 0.652582 -0.552229 -0.437599 0.271385 -0.737913 -0.054203 -0.425313 -0.575461 -0.721009 0.597059 -0.511013 1.001150 0.635955 0.845255 -0.698084
ACUA 1.139948 -0.433922 -0.403380 -1.020540 0.833144 -0.010068 -0.150082 -0.984948 -0.533587 0.231770 0.882446 -0.439417 -0.440989 -0.099443 0.042526 -0.318483 -1.020825 -0.624627 0.475185 -0.136180 0.600638 -0.816017 -0.607832 -1.286302 -0.081067 0.011945 0.587633 0.064882 -0.221097 -1.252678
GUUA 0.542092 -0.899884 0.646128 -0.530053 0.375081 -0.098422 -0.535220 0.004397 0.478383 -0.013709 1.523731 -0.496369 -0.851440 0.080789 0.819515 0.193154 -0.729563 -0.189810 0.013450 -0.312486 0.004505 -0.544591 -0.738270 -0.748341 0.024536 -0.124902 0.974063 0.595635 0.696678 -0.283567
UAAC 0.540937 -0.120623 -0.572979 -0.465214 0.599363 0.321692 -0.199647 -0.528317 -0.495583 -0.165153 1.560863 -0.233626 -0.427717 -0.181191 0.254376 -0.082496 -0.840645 -0.284346 0.359031 -0.060984 0.211912 -0.804236 -0.417554 -1.008638 -0.453532 0.636083 0.826754 0.247391 0.002526 -0.845160
AGUC -0.233557 -0.692745 -0.546418 0.065232 0.038544 -0.146526 0.012841 -0.573883 0.775885 0.564106 1.005127 -0.600682 0.344935 0.190076 -0.772884 1.399974 0.157401 -0.134844 -0.212232 -0.311542 0.024483 -0.190388 -0.502397 -0.559310 0.557172 -0.417872 1.040573 0.437989 0.264134 -0.708510
GACU 0.667748 0.340018 -0.030934 -0.654175 0.718891 -0.784792 0.140137 -0.199576 0.044909 0.560260 0.602227 -0.661202 -0.225082 0.127725 -0.141898 -0.076570 -0.700207 -0.318766 -0.436782 0.158770 1.538554 -0.426495 -0.404699 -0.584504 0.479238 -0.367867 0.201244 -0.232301 -0.942561 -0.525734
GGAU 0.597249 0.273093 0.910179 0.406253 -0.548641 -0.251319 0.923044 0.669763 0.235143 -0.690528 0.018289 -0.228697 -0.645620 0.339738 0.702130 0.497654 -0.054523 -0.876669 -0.223248 -0.318671 0.782801 -0.103249 -0.756100 -1.024938 0.355667 -0.534002 0.815818 -0.075750 -0.658394 -1.013353
AUCC 0.158710 0.037919 -0.757041 0.606863 -0.291418 0.348847 0.711927 0.225331 0.451294 -0.689575 0.639291 -0.017056 -0.551305 -0.124016 -0.305805 0.676219 0.095192 -0.778703 0.468474 -0.399323 0.309109 0.098266 0.731769 -1.257920 0.073871 -0.263526 1.261464 0.298083 -0.119813 -0.870523
GAGC -0.463875 -0.172796 0.133104 0.572984 -0.265108 -1.081867 0.044024 -0.402188 0.134203 0.307542 0.042795 -0.257850 0.064562 -0.401967 0.153872 0.701576 -0.612063 -0.420202 -0.906306 -0.126440 0.581411 0.601953 0.204979 -0.122482 -0.077754 -0.724157 -0.256626 0.123239 -0.177595 -1.007562
GCUC -0.070285 0.194074 0.170906 0.719800 0.265175 0.034083 0.398203 -0.526484 -0.121540 0.668030 0.780119 -0.083855 0.226715 -0.498389 -0.665805 0.393290 0.137309 -0.948098 -0.663062 -0.315127 0.261499 -0.093266 0.890834 0.212825 0.557011 -0.255535 -0.061042 -0.203128 -0.216612 -0.960751
GGUU 0.551113 0.016093 1.550145 -0.285192 0.073512 0.496599 0.518935 0.249509 0.559736 0.101469 1.800671 -0.187150 -0.631204 0.530646 0.670968 0.599636 -0.047747 -0.380824 -0.675972 0.160935 0.194867 -0.057844 -0.874847 -0.189519 0.127975 -0.169216 0.642616 0.827467 0.263640 -0.058468
GGGC 0.192670 0.056146 0.960136 0.504558 -0.709512 0.367624 1.244111 -0.062361 -0.617769 0.590561 0.339214 0.227556 -0.020520 0.079735 0.091920 0.322133 -0.264523 -1.022671 -0.904785 0.306787 0.190109 0.921094 -0.033473 0.165005 0.029164 -0.115155 -0.834306 0.335214 -0.221817 -0.524916
AACC 0.080470 0.223546 -1.397598 0.165929 0.155903 0.334289 0.273289 -0.002334 -0.425965 -0.262191 1.703159 0.161943 -0.275330 -0.053337 0.040663 0.415285 -1.363362 -0.177394 0.200753 0.380700 0.614405 -0.131783 -0.037146 -0.902031 -0.767073 0.449141 0.786008 0.603835 -0.285803 -0.514147
GCCC -0.752535 0.438622 -0.471652 0.767343 -0.183312 0.283187 0.450304 0.080243 0.000002 0.228092 0.810542 0.006964 0.207046 -0.011664 0.104265 0.620896 -0.701742 -0.840769 0.122668 -0.146432 0.075938 1.488833 1.278260 -0.053811 -0.050387 -0.639419 -0.413847 0.806618 -0.065118 -0.424483
UAGG 1.166835 -0.894155 0.944640 -0.215654 -0.465223 0.305376 0.145163 -0.364499 0.134613 0.422342 0.353778 -0.091261 -0.574907 0.404489 0.662204 0.380479 -0.928845 -1.238061 -0.343611 -0.048525 0.459285 0.191183 -0.831801 -0.897659 0.709239 -0.310653 0.366243 0.760894 0.121259 -1.189859
GUUG -0.200221 -0.376178 0.985470 -0.296347 0.455225 -0.575341 0.043645 0.919352 0.324205 0.037670 1.807574 -0.999954 -0.557956 0.034867 0.911137 0.341918 -0.311746 -0.212399 -0.743460 -0.252010 0.325223 0.099754 -0.647649 -0.224394 0.446834 -0.072082 0.373961 0.364135 0.203177 0.254457
CCUA 0.362513 -0.118620 -0.681997 -0.017642 0.583040 0.892049 -0.155943 -0.552590 0.005873 0.110413 0.813395 -0.194428 0.050306 0.138672 0.324902 0.239108 -1.170107 -1.190622 0.854721 -0.251537 0.483387 0.268555 0.770368 -1.211598 0.435150 -0.275677 0.638076 0.786750 0.005050 -1.193856
GGCC -0.215238 0.358876 0.230488 0.581219 -0.642683 0.574584 1.010516 0.077838 -0.227567 0.461549 0.601850 0.172844 0.098972 0.352888 0.200367 0.433899 -0.587340 -1.052600 -0.230070 0.313568 0.247380 1.427955 0.540509 -0.143033 0.105121 -0.282275 -0.549365 0.720805 -0.278824 -0.331705
CAAC -0.187132 0.355488 -0.944332 -0.279066 0.123699 -0.188773 0.524135 -0.810711 -0.779304 0.051601 1.717818 -0.172967 -0.577696 -0.333872 -0.800961 0.202934 -0.342206 -0.141126 0.013152 0.026571 0.053734 0.097362 -0.392668 -0.975016 -0.748471 0.686504 0.494044 0.322225 -0.294907 -0.652176
GUUC -0.117388 -0.077149 0.512565 -0.051947 0.188965 0.046420 -0.092284 -0.003759 0.933472 0.306225 1.678241 -0.349819 -0.650961 0.082277 -0.294037 0.592708 0.136051 -0.036363 -0.501669 -0.130821 0.057068 -0.210089 -0.141037 -0.335167 0.612026 -0.047721 0.951313 0.490991 0.522316 0.149821
GAAC -0.074397 0.355729 -0.672957 -0.171706 0.149847 -0.473005 0.126515 -0.189421 -0.342050 -0.103258 0.880358 -0.370094 -0.144529 0.071457 0.124212 0.159903 -0.858445 -0.081696 -0.446649 0.425574 0.963605 -0.377837 -0.756153 -0.611010 -0.472247 0.655417 0.639934 -0.033192 -0.769481 -0.732344
GGGU 0.641063 -0.361782 1.200701 -0.092459 -0.059517 0.944693 1.104356 0.566630 0.099300 0.112823 1.020612 -0.126099 0.041937 0.699067 0.398095 0.876191 -0.044534 -0.793799 -0.721962 0.041796 0.177056 0.357566 -1.392434 0.173805 0.463687 -0.204031 0.123082 0.517877 0.092905 -0.035769
ACCC 0.193354 0.609213 -1.508878 -0.113058 0.418320 0.527073 0.482618 -0.030892 0.078072 -0.278199 1.178689 0.351444 -0.387912 0.053133 -0.382780 0.528377 -1.088434 -0.393139 0.573152 0.144101 0.681543 0.879920 0.358661 -0.634617 -0.644850 -0.503885 0.182715 0.845745 -0.464552 -0.055590
CUAG 0.582374 -0.635735 0.077194 -0.029988 0.386579 0.057313 -0.397424 -0.923440 0.270255 0.759851 0.364565 -0.338097 0.020399 -0.081231 0.053587 0.441300 -1.008046 -1.155561 -0.247405 -0.285609 0.714083 0.083299 0.065252 -0.757109 0.780610 -0.563045 0.395150 0.509642 0.061892 -1.475462
GUGC -0.679022 -0.632144 0.175948 0.070822 0.546609 -0.368709 0.420428 0.551455 -0.367664 0.115887 1.113398 -0.833201 0.278164 -0.318686 0.320834 0.341319 -0.146664 -0.590887 -0.265998 -0.660371 -0.340704 0.482962 0.132174 0.318054 0.057450 -0.197379 -0.523680 -0.053300 0.407182 -0.171764
GCAC 0.037732 -0.045848 -0.066874 -0.312808 0.008073 -0.685905 0.603639 -0.609130 -0.858875 0.166579 0.875418 -0.133512 -0.555850 -0.672102 -0.505650 0.030873 -0.162228 -0.355471 -0.119909 -0.400683 -0.169219 0.685850 -0.086447 -0.154829 -0.632750 -0.276951 -0.623108 0.087908 -0.137517 -0.434372
GUAG 0.505082 -1.688943 0.206615 -0.354576 -0.051310 -0.174544 -0.516762 0.104619 0.418932 0.275394 0.407106 -0.366021 -0.159374 0.035303 0.656771 0.758819 -0.810781 -0.459478 -0.214516 -0.500053 0.134676 0.154322 -1.172370 -0.319002 0.630284 -0.452264 0.326903 0.541316 0.456198 -0.668906
CUAC 0.784310 0.180656 -0.591628 -0.720513 1.287326 0.571952 -0.011743 -1.183826 -0.309398 0.150355 0.872821 -0.278541 -0.191852 -0.158748 -0.233117 -0.232375 -0.601804 -0.808810 0.621670 -0.323922 0.512969 -0.324659 0.256920 -0.860475 0.239833 0.004828 0.092325 0.144710 -0.168366 -0.975324
UAGC 0.493018 -1.062439 0.174340 0.223713 0.035398 -0.466233 -0.513427 -0.797180 -0.034704 0.617165 0.600535 -0.149129 -0.525078 -0.648954 0.375699 0.188935 -0.808969 -0.818543 0.030939 -0.664953 -0.130974 0.061227 0.584238 -0.665578 0.114355 -0.558781 0.024536 0.482783 0.574129 -1.446513
GCUA 0.446168 -0.591721 0.483597 0.060927 0.487212 -0.073130 -0.235800 -0.657915 -0.648846 0.335097 0.546934 -0.446586 0.172740 -0.337977 0.702050 -0.155878 -0.733110 -1.003683 0.019270 -0.453270 0.074103 -0.308476 0.453333 -0.456502 0.023367 -0.176974 0.192924 0.046834 0.154082 -1.726425
GGUA 1.209550 -1.020116 0.584188 -0.364454 -0.068503 0.731709 0.427500 0.040403 -0.192079 -0.100659 0.742887 -0.050532 -0.077353 0.466273 0.727315 0.634892 -0.570856 -0.593633 0.093527 -0.208575 -0.008986 -0.211489 -1.329469 -0.311837 -0.137755 -0.236086 0.477195 0.483776 0.186314 -0.757444
UACC 1.115472 -0.159343 -0.864370 -0.469487 0.900493 0.663134 0.113026 -0.102203 0.166123 -0.213696 1.262379 0.264629 -0.661495 -0.002359 0.215116 0.172336 -1.047453 -0.458044 1.009983 -0.297379 0.376820 -0.021099 0.357801 -0.972721 -0.441421 -0.687365 0.323588 0.613766 0.127078 -0.378639
GUCC -0.424963 -0.259162 -0.619260 0.451092 0.318258 0.839806 0.435836 0.170376 0.809102 0.020273 0.999198 -0.395874 0.252115 0.338208 -0.486300 1.135741 0.177966 -0.617798 -0.106406 -0.307546 0.134142 0.542840 -0.031418 -0.468997 0.740345 -0.099881 0.454520 0.513004 0.258287 0.176236
GGAC 0.377237 0.720250 0.042880 -0.681507 -0.077719 -0.221878 0.667607 -0.196229 -0.365893 -0.104567 0.220080 0.098368 -0.406413 0.375547 -0.163160 0.137831 -0.711777 -0.446072 -0.450861 0.270788 1.114169 0.652630 -1.061640 -0.461017 0.239387 -0.366367 -0.050293 0.246195 -1.082129 -0.270017
GGUC 0.231530 -0.095511 0.433534 0.108694 -0.142245 0.941633 1.030861 0.064386 0.295465 0.441326 0.912496 -0.176338 0.445141 0.640736 -0.564904 1.090853 0.589151 -0.675476 -0.427509 -0.073910 0.023157 0.184053 -0.793248 -0.156803 0.761590 -0.005533 0.483956 0.357683 0.029486 -0.123167
GACC 0.106586 0.697884 -1.011485 -0.373280 0.221029 -0.414370 0.354118 0.219313 0.160067 -0.106254 0.481528 -0.095695 -0.285624 0.315962 -0.030436 0.364613 -1.089835 -0.178799 0.155827 0.352110 1.282733 0.840454 -0.086915 -0.664981 -0.072371 -0.701620 0.097160 0.436605 -0.869165 0.053372
GAUC 0.170920 0.130274 -0.043058 0.462569 -0.424934 -0.473648 0.567047 0.367127 0.737853 -0.361619 -0.068220 -0.357055 -0.297061 0.024169 -0.389923 0.520325 0.434160 -0.537795 -0.024593 -0.165597 0.767261 -0.394526 0.074519 -1.033944 0.483004 -0.362644 1.186374 -0.322128 -0.573784 -0.979697
GUAC 0.964728 -0.897705 -0.374991 -1.015672 0.961895 0.300648 -0.102434 -0.206694 -0.111744 -0.116646 0.975063 -0.279072 -0.286316 0.101233 0.228562 0.160411 -0.566258 -0.182566 0.662041 -0.471869 -0.064676 -0.174897 -0.967116 -0.439170 -0.158440 -0.203995 0.105152 0.277312 0.255630 -0.139237
CGGG 0.066974 0.756297 0.894799 0.318239 -0.519183 0.937224 0.758380 0.082097 -0.210021 -0.378769 -0.358331 0.978757 0.524409 0.429136 -0.020745 0.407183 0.294566 -0.095297 -0.678628 0.466288 0.070374 0.381582 -0.643494 1.169078 -0.227586 -0.543216 -0.411157 0.174017 -0.563397 0.101374
CCCG -0.085449 0.443046 -1.064920 0.951153 0.100899 0.849846 0.386710 0.603625 0.676949 -0.516730 0.005397 0.973187 0.069882 -0.023076 -0.280424 0.398822 -0.182574 0.127082 -0.307681 0.282121 0.365971 0.745472 0.894737 0.491972 -0.466394 -0.495729 -0.572469 0.373589 0.034329 0.684577
CGUG -0.757538 -0.498486 -0.475275 0.068996 0.121038 -0.190757 -0.191927 1.198495 -0.270619 -0.480793 0.077980 -0.082971 -0.394288 -0.183377 0.038547 -0.525078 -0.212781 -0.316835 -0.361499 -0.211238 -0.118671 0.529248 -0.351852 0.317187 1.047270 0.578120 -0.524875 -0.414142 0.122600 1.065718
CACG -0.967421 0.650560 0.092865 -0.566633 0.115693 0.109571 0.009521 -0.956277 0.017538 -0.635269 -0.261861 -0.149224 -0.385757 0.169018 -0.541018 -0.384902 0.889423 -0.097853 0.140053 -0.051511 -0.563879 1.075887 -0.544010 -0.050011 -0.304663 0.704124 -0.219967 0.028597 0.013197 0.214298
ACGU -1.192984 -0.192221 -0.338438 -0.897144 0.367093 0.037763 -1.069801 -0.511580 -0.046232 -0.832900 0.040577 -0.420354 -1.138839 0.145665 0.040008 -1.123937 -0.127042 -0.569225 0.104296 -0.355471 -0.460446 0.784247 -1.200382 -0.850214 1.284089 1.865518 0.313911 -0.066030 0.412141 0.617834
CCGG 0.284391 0.749475 -0.089948 0.905980 0.078959 1.289828 0.829909 0.475573 0.268556 -0.949368 0.112225 1.322694 0.209807 -0.037813 -0.160736 0.809221 -0.019413 -0.015657 -0.794606 0.042405 0.441794 0.375421 0.031389 1.054787 -0.799287 -0.978740 -0.494322 0.406475 -0.383930 0.115895
GCGG -0.065995 0.332714 1.100780 0.793206 -0.303392 0.413147 0.693136 0.029705 -0.461493 -0.253804 -0.317235 0.714674 0.518888 -0.087952 0.282972 0.418761 0.233767 -0.145792 -1.154377 0.079057 -0.032347 0.289386 -0.303773 1.240298 -0.526621 -0.758436 -1.045413 -0.007782 -0.233869 -0.141950
CCGC -0.223514 0.532972 -0.787578 1.008823 0.178344 0.515288 0.293188 0.111000 0.040038 -0.410472 0.181781 1.072848 0.209968 -0.680514 -0.467605 0.316295 -0.158666 0.116657 -0.383796 -0.057994 0.107873 0.679684 1.420972 1.064454 -0.752707 -0.842705 -0.823792 0.187653 -0.028827 0.170031
CGCC -0.853005 0.785564 -0.478946 0.384640 -0.273898 0.509578 -0.044255 -0.133927 -0.067658 0.038382 -0.056764 0.598862 0.557048 -0.083530 -0.287695 -0.005444 -0.053725 0.093065 0.372152 0.197314 -0.325707 1.131546 1.372888 0.818296 -0.220468 -0.430119 -0.358462 0.340120 -0.258912 0.182417
GGCG -0.016490 -0.026152 0.746957 0.656556 -0.784648 0.316705 0.805025 0.243608 -0.208003 0.467155 -0.776360 0.497749 0.234719 0.177832 0.289789 -0.099729 0.183190 -0.123666 -1.132880 0.569562 0.092688 0.561987 -0.090944 0.526454 -0.172858 0.035069 -1.344936 -0.110532 0.018790 0.430917
GCCG -0.269670 -0.031633 -0.247068 0.986396 -0.270773 0.189778 0.276244 0.621300 0.261757 -0.041136 -0.348071 0.646246 0.254627 -0.123302 0.237718 0.143125 -0.233057 0.091084 -0.617489 0.248145 0.105409 0.735504 0.836015 0.757221 -0.372265 -0.302343 -1.054523 0.074156 0.153376 0.440663
CGGC -0.324064 0.798678 0.539763 0.529527 -0.391905 0.603622 0.446469 -0.314126 -0.469352 -0.018951 -0.194867 0.887454 0.464781 -0.063855 -0.225068 0.038167 0.362936 -0.118490 -0.392738 0.242157 -0.259045 0.493804 0.517286 1.071024 -0.465338 -0.418336 -0.750941 0.041988 -0.308832 0.057250
CGUU -0.347054 0.000265 0.094106 0.057584 -0.268329 -0.211727 -1.120053 0.425657 0.483307 -0.145771 0.698153 0.462486 -1.523697 -0.360428 0.143144 -0.883912 -0.236218 0.282078 -0.461711 0.059862 -0.203514 -0.089705 0.134835 -0.367782 1.037713 0.839688 0.252699 0.051994 0.605199 1.179206
AACG -1.233774 0.445643 0.019053 -0.126966 0.030091 0.295027 -0.639182 -0.890569 -0.278367 -0.755983 -0.071292 -0.197362 0.055368 0.413858 0.517643 -0.575107 0.194931 0.148430 -0.199452 0.413919 -0.328485 -0.068172 -0.677876 -0.212123 -0.518467 1.737466 0.698523 -0.046905 -0.076191 -0.343636
CUCG 0.226687 0.515985 -0.022473 0.045170 -0.480340 0.126408 -0.088645 0.162895 -0.283699 1.106527 0.242639 0.451894 0.887367 0.086415 -0.848234 -0.088469 0.100679 0.270270 0.282854 0.590557 0.125134 -0.454361 0.704043 0.954341 0.991974 -0.385516 0.310696 -0.347915 -0.732288 0.240546
CGAG -0.009847 -0.309464 -0.122640 0.301605 -0.289610 -0.415556 0.278161 -0.363807 1.071768 0.883139 -0.829822 -0.323074 0.642756 0.682000 0.173177 0.416367 0.203445 0.712372 -0.522902 0.957598 0.636887 0.327558 0.272876 -0.229346 -0.880396 -0.031297 -0.482492 -0.014194 0.082849 0.234187
AGCG -0.298961 -0.678145 0.091061 0.836653 -0.590137 -0.619198 -0.216827 -0.306574 0.135613 0.334033 -0.645534 0.464049 -0.024611 -0.499293 0.113426 0.203292 -0.181673 0.202933 -1.154222 0.080527 -0.116474 0.226106 0.173365 0.176981 -0.258752 -0.204832 -1.014475 -0.057304 0.481918 -0.099414
CGCU -0.442627 0.656783 0.295894 0.384223 0.434490 0.127219 -0.272798 -0.464831 -0.307699 0.129043 0.157744 0.222470 0.615949 -0.449797 -0.092656 -0.421116 0.157654 -0.191134 -0.298633 -0.164828 -0.123437 -0.015164 1.197174 0.988810 0.059290 -0.320802 -0.311961 -0.321263 -0.217380 -0.549484
CCGU -0.039381 -0.657303 -1.389315 0.730656 0.172803 0.436911 -0.242435 1.375734 0.600192 -0.783548 0.520210 0.982075 -0.950625 -0.508488 -0.328445 -0.065579 -0.742895 -0.169733 -0.508351 -0.328929 0.250447 0.352777 0.225575 -0.061667 0.953825 0.205450 -0.363549 0.066305 0.644395 1.274081
ACGG -0.640242 1.180221 0.987829 -0.600423 0.351125 0.888724 0.269068 -1.200113 -0.240499 -1.318698 -0.261660 0.160004 0.117986 0.634972 0.216772 -0.043174 0.474136 -0.360597 -0.172445 -0.067130 -0.129360 0.621612 -1.399091 0.385618 -0.741368 0.345166 0.242585 0.264928 -0.560046 -0.508000
CGGA -0.240849 1.017980 0.308949 0.304592 -0.270145 0.201206 0.118084 -0.065104 0.071831 -0.940718 -0.615913 0.815581 0.305064 0.198494 0.097881 0.334868 0.092304 0.366720 -0.457274 0.223421 0.411367 -0.169652 -0.629551 0.594920 -0.500214 -0.604320 0.283521 -0.092803 -0.917665 -0.313865
UCCG 0.225140 0.101466 -0.571088 1.121484 0.145172 0.732456 0.281723 0.554580 1.070294 -0.609525 0.086653 0.893762 -0.193475 -0.188608 -0.512180 0.418273 0.465466 0.176527 -0.790577 0.063707 0.361528 -0.320093 0.711269 0.191620 0.013362 -0.132408 0.034512 -0.175428 0.302089 0.458904
UGCG -0.316254 -0.252509 0.414844 0.592777 0.319483 -0.254019 0.416651 0.741503 -0.223543 0.061863 0.080830 -0.208258 0.166282 -0.364008 0.401988 -0.365466 0.368921 -0.031338 -0.673309 -0.179981 -0.039894 -0.103451 0.525812 0.326448 -0.241649 -0.021311 -1.075111 -0.625186 0.292420 0.393866
CGCA -0.616591 0.199347 -0.114325 -0.037471 -0.506341 -0.391242 0.109026 -0.546283 -0.626173 -0.309183 0.104755 0.463132 0.035393 -0.765449 -0.440535 -0.030034 0.407925 0.487343 0.059111 -0.185618 -0.708041 0.535874 0.373526 0.778632 -0.821834 -0.357382 -0.226509 0.030048 -0.140120 -0.314033
UCGU 0.023738 -0.643933 -0.180853 -0.309781 -1.103537 -0.366616 -0.831667 1.240184 -0.133108 0.949914 0.887447 0.152453 -0.350051 -0.102172 -0.717688 -0.440994 -0.268921 0.122538 0.570452 0.052577 -0.420383 -0.555864 -0.044123 0.077532 2.600485 0.285063 1.211497 -0.211761 -0.057269 1.026543
ACGA -0.507616 0.388972 -0.188086 -0.746239 0.449575 -0.414804 0.185432 -1.408232 0.860070 0.148205 -0.858324 -1.347677 0.099006 1.216861 0.434318 -0.487646 0.544149 0.370816 0.319780 1.021540 0.488579 0.349995 -0.428517 -1.562932 -1.309538 1.354369 0.235076 -0.252362 -0.133224 -0.320401
UCGG 0.387273 0.752131 1.114220 -0.032102 -1.038536 0.509033 0.362943 0.480819 -0.403607 0.507957 0.592126 0.773613 0.918190 0.310555 -0.525113 0.620447 0.422515 0.307674 0.251883 0.361763 -0.239786 -0.571329 -0.201929 1.282358 0.762877 -1.060395 0.952908 0.059942 -0.945881 -0.055874
CCGA 0.484607 -0.089983 -1.228001 0.854073 0.195778 0.015635 0.875020 0.341652 1.430590 0.232713 -0.435542 0.126434 0.146113 0.438931 0.133615 0.524670 -0.074832 0.696608 -0.422443 0.962412 1.133977 0.001634 0.958149 -0.804819 -1.561918 -0.148434 -0.615784 -0.113083 0.164507 0.335648
UUCG 0.207441 0.574946 1.009285 -0.318826 -0.938012 -0.392219 -0.608307 0.446966 0.325761 0.947832 0.869342 0.252248 -0.027044 0.171624 0.040269 -0.259810 0.216208 0.987891 0.418037 0.598946 -0.254897 -0.745347 0.527113 0.467324 0.682391 -0.370638 1.115296 0.020131 -0.212655 0.502204
CGAA -0.027563 -0.154297 -0.737590 0.465496 -0.383097 -0.267898 0.309707 -0.268149 0.391742 0.634140 -0.088220 -0.368753 0.517300 0.647600 0.478602 -0.043423 0.050813 0.915712 -0.179306 1.204746 0.354836 -0.745094 0.406652 -0.937697 -1.273698 1.076619 0.296843 -0.329488 0.055940 -0.063581
CGUC -0.566628 -0.076870 -0.894756 0.399650 -0.355829 0.437448 -0.360075 0.165354 0.240580 0.093306 -0.152604 0.502346 -0.292491 -0.199576 -1.078014 -0.327210 0.429919 -0.107419 -0.274190 -0.026156 -0.301985 0.121651 0.146234 -0.112347 1.441338 0.784359 -0.029139 -0.336975 0.265927 0.880157
GCGC -0.638972 0.143879 0.351762 0.853323 -0.269547 -0.166760 0.119763 -0.230353 -0.575319 0.282678 -0.312711 0.564083 0.491218 -0.767195 -0.043065 -0.022703 0.179554 -0.086287 -0.811857 -0.190416 -0.363331 0.620087 1.125029 1.168931 -0.517596 -0.600696 -1.412211 -0.126407 0.132043 -0.238292
GACG -1.023029 0.753202 0.358187 -0.569231 0.137854 -0.363126 -0.439300 -0.465400 0.302526 -0.622254 -1.181715 -0.367522 0.050042 0.613920 0.313668 -0.453941 0.264754 0.043480 -0.370094 0.400397 0.366011 0.877672 -0.659095 0.167849 0.050724 0.414096 -0.094721 -0.182499 -0.578403 0.208972
GCGU -0.432459 -1.051999 -0.030900 0.633312 -0.276739 -0.327944 -0.430208 0.782036 -0.142581 0.038745 0.038254 0.316876 -0.726395 -0.687090 0.079988 -0.498073 -0.204248 -0.319469 -1.058415 -0.508493 -0.353733 0.191780 -0.119594 0.075709 1.122356 0.468615 -1.037949 -0.358072 0.801595 0.815700
ACGC -1.230595 0.932030 0.086790 -0.408641 0.533248 0.045402 -0.379409 -1.409847 -0.520583 -0.797149 -0.259313 -0.117332 0.111179 -0.208099 -0.070668 -0.580358 0.329137 -0.164825 0.107315 -0.204894 -0.478867 0.974510 0.201020 0.441781 -0.748899 0.494687 -0.182034 0.086759 -0.227982 -0.628156
CGGU 0.049666 0.236085 0.937198 -0.159943 0.219117 1.103145 0.267366 0.244327 0.189339 -0.512110 0.492032 0.460095 0.516466 0.435693 0.044517 0.429177 0.628023 0.252780 -0.149969 -0.014999 -0.428078 -0.235286 -0.713708 1.090451 -0.054468 -0.416578 0.263908 0.203736 0.046807 0.403984
ACCG 0.645638 0.070937 -1.220959 0.123793 0.376555 0.272013 0.254117 0.387714 0.201494 -0.666434 0.100253 0.929547 -0.401393 -0.187028 -0.151743 -0.008148 -0.658235 0.561802 -0.040098 0.287613 0.541972 0.064159 -0.057688 0.096572 -1.085140 -0.225500 -0.476406 0.079501 -0.094795 0.649415
CGUA 0.459187 -1.255416 -0.824834 -0.166729 -0.341828 0.071693 -1.095119 0.435040 -0.151301 -0.386134 -0.214546 0.677173 -0.930592 -0.423871 0.289952 -0.822644 -0.748512 0.014984 0.356058 -0.352991 -0.441001 -0.396416 -0.428983 -0.548989 0.943753 0.621435 0.149991 -0.229167 0.617114 0.472263
UACG -0.077474 0.026420 0.635726 -0.930539 0.901816 0.691913 -0.883590 -1.066172 0.154718 -0.851741 -0.510462 -0.301925 -0.214806 0.505469 0.832264 -0.913298 0.449186 -0.153091 0.719662 -0.198790 -0.569360 -0.084428 -0.375780 -0.369146 -0.255190 0.695118 0.438773 -0.024250 0.380716 -0.339244
UCGA 0.525911 -0.060840 -0.072720 -0.306078 -1.097375 -1.037602 0.447040 0.292308 0.737893 2.046093 0.047242 -0.921881 0.846563 1.072922 -0.268826 0.128640 0.484201 1.094887 0.882113 1.555645 0.456561 -0.950009 0.729882 -0.849092 0.196916 -0.031103 1.139472 -0.391307 -0.644770 0.104659
AUCG 0.204212 -0.118381 0.169501 -0.223816 -1.527198 -0.446047 0.017005 0.760571 -0.481212 0.364931 -0.185303 0.220550 0.276978 0.029622 -0.258739 -0.207270 0.500968 0.622101 1.096649 0.320882 -0.453361 -0.676133 0.381000 0.105969 0.615331 -0.300898 1.502170 -0.333729 -0.628509 -0.190738
CGAU 0.400120 -0.054808 0.053377 0.284026 -0.224832 -0.526694 0.669894 0.351081 1.051299 0.234891 -0.716063 -0.697263 -0.158894 0.606510 0.521859 -0.339695 0.890183 0.453586 0.555767 0.684518 0.276912 -0.537055 0.890264 -1.447189 -0.861195 0.125857 0.220279 -0.728477 0.139557 -0.052397
GCGA 0.173158 -0.403359 0.108902 0.610044 -0.258407 -0.815116 0.716342 -0.196532 0.488733 0.924867 -0.838628 -0.575943 0.404064 0.333296 0.550390 -0.026052 0.358844 0.497607 -0.790134 0.924299 0.568902 -0.122765 0.535068 -0.661632 -1.261385 0.022024 -1.119790 -0.495214 0.128022 -0.105196
UCGC -0.182088 0.339780 0.306989 0.072534 -0.906801 -0.252279 -0.212239 0.209941 -0.555161 0.970816 0.631881 0.361611 0.868992 -0.285948 -0.724136 0.120329 0.297736 0.375960 0.657614 0.181848 -0.545656 -0.276271 1.280020 1.138208 0.717533 -0.817620 0.627743 -0.106681 -0.550813 -0.147648
GUCG -0.297522 -0.481901 0.302832 -0.134637 -0.722956 0.122634 -0.124293 0.650312 0.038116 0.983882 0.171093 -0.111629 1.046479 0.672726 -0.305758 0.303794 0.394313 0.760870 0.289542 0.381215 -0.548512 -0.213919 -0.353879 0.922736 0.923237 -0.242805 0.427106 -0.102121 -0.113770 0.847014
CGAC 0.244053 0.500578 -0.766262 -0.538284 0.253010 -0.348391 0.370104 -0.552618 0.345783 0.717900 -0.490281 -0.213074 0.126275 0.511086 -0.362300 -0.537586 0.164330 0.814359 0.201464 1.089466 0.648344 0.229871 0.456500 -0.589797 -0.857841 0.152036 -0.565740 -0.228063 -0.376619 0.640498
CGCG -0.562207 0.437631 0.040830 0.603193 -0.264503 0.291175 -0.069931 -0.011344 -0.157713 -0.062487 -1.002668 0.884869 0.651073 -0.165500 -0.246664 -0.311104 0.519313 0.540067 -0.555515 0.448172 -0.266104 0.596647 0.714709 1.432734 -0.301030 -0.117789 -1.176601 -0.142367 -0.004115 0.787281
<unk> 0.043065 -0.035294 -0.043289 0.030818 0.013993 0.042267 0.158683 -0.032138 0.069552 0.031679 0.403992 -0.031065 -0.078856 0.037805 -0.007057 0.165216 -0.142219 -0.191896 -0.092226 0.008231 0.160064 0.107576 -0.024940 -0.194772 0.035083 -0.112000 0.135007 0.105769 -0.066248 -0.207755
